%YAML:1.0
opencv_ml_svm:
   format: 3
   svmType: C_SVC
   kernel:
      type: RBF
      gamma: 10.
   C: 15.
   term_criteria: { iterations:100 }
   var_count: 256
   class_count: 10
   class_labels: !!opencv-matrix
      rows: 10
      cols: 1
      dt: i
      data: [ 0, 1, 2, 3, 4, 5, 6, 7, 8, 9 ]
   sv_total: 1097
   support_vectors:
      - [ 1.22549020e-001, 5.99019587e-001, 9.98039186e-001,
          1.11764707e-001, 7.03921556e-001, 4.06862736e-001,
          6.07843161e-001, 1.23529412e-001, 6.83333337e-001,
          5.04901946e-001, 2.24509805e-001, 6.88235283e-001,
          7.96078444e-001, 2.94117648e-002, 5.33333361e-001,
          6.09803915e-001, 9.18627441e-001, 4.67647046e-001,
          7.40196049e-001, 1.48039222e-001, 6.52941167e-001,
          3.40196073e-001, 3.54901969e-001, 3.80392164e-001,
          2.75490195e-001, 6.09803915e-001, 3.38235289e-001,
          1.08823530e-001, 5.24509788e-001, 8.03921580e-001,
          4.54901963e-001, 9.49999988e-001, 3.04901958e-001,
          2.15686280e-002, 6.82352960e-001, 9.69607830e-001,
          4.64705884e-001, 3.67647052e-001, 5.68627477e-001,
          3.56862754e-001, 4.37254906e-001, 5.01960814e-001,
          4.63725477e-001, 5.85294127e-001, 5.86274505e-001,
          1.59803927e-001, 2.94117659e-001, 3.94117653e-001,
          7.31372535e-001, 9.97058809e-001, 2.28431374e-001,
          6.83333337e-001, 2.84313738e-001, 6.24509811e-001,
          2.35294119e-001, 7.50980377e-001, 3.27450991e-001,
          2.84313738e-001, 3.44117641e-001, 9.90196049e-001,
          5.41176498e-001, 4.64705884e-001, 4.36274499e-001,
          3.88235301e-001, 1.58823535e-001, 6.18627429e-001,
          6.23529434e-001, 8.09803903e-001, 5.27450979e-001,
          6.17647052e-001, 6.66666687e-001, 3.75490189e-001,
          8.88235271e-001, 2.16666669e-001, 6.63725495e-001,
          2.46078432e-001, 5.25490224e-001, 2.60784328e-001,
          3.39215696e-001, 9.70588207e-001, 4.26470578e-001,
          5.06862760e-001, 5.14705896e-001, 5.44117630e-001,
          3.20588231e-001, 3.92156886e-003, 3.20588231e-001,
          1.78431377e-001, 3.93137246e-001, 6.74509823e-001,
          7.53921568e-001, 3.38235289e-001, 5.82352936e-001,
          5.16666651e-001, 8.46078455e-001, 9.36274529e-001,
          4.31372553e-001, 1.42156869e-001, 3.32352936e-001,
          2.15686277e-001, 8.82352948e-001, 6.21568620e-001,
          7.03921556e-001, 6.86274515e-003, 0., 9.96078432e-001,
          5.26470602e-001, 2.37254903e-001, 7.36274481e-001,
          6.78431392e-001, 8.34313750e-001, 5.84313750e-001,
          6.03921592e-001, 9.40196097e-001, 3.59803915e-001,
          8.96078408e-001, 3.82352948e-001, 6.25490189e-001,
          7.80392170e-001, 9.30392146e-001, 6.75490201e-001,
          4.44117635e-001, 9.92156863e-001, 7.18627453e-001,
          4.91176456e-001, 9.93137240e-001, 7.28431344e-001,
          9.73529398e-001, 1.37254909e-001, 5.28431356e-001,
          5.07843137e-001, 9.98039186e-001, 2.23529413e-001,
          5.70588231e-001, 2.35294122e-002, 5.03921568e-001,
          1.93137258e-001, 7.69607842e-001, 6.39215708e-001,
          9.10784304e-001, 7.80392170e-001, 4.26470578e-001,
          1.56862754e-002, 4.79411751e-001, 9.27450955e-001,
          1.58823535e-001, 5.87254882e-001, 7.29411781e-001,
          8.15686285e-001, 5.46078444e-001, 2.19607845e-001,
          5.37254930e-001, 9.12745118e-001, 2.41176471e-001,
          6.57843113e-001, 9.08823550e-001, 7.38235295e-001,
          2.64705885e-002, 2.12745100e-001, 5.78431368e-001, 1.,
          5.92156887e-001, 2.15686280e-002, 3.03921580e-001,
          2.45098043e-002, 6.96078420e-001, 3.99019599e-001,
          6.11764729e-001, 7.74509788e-001, 8.77451003e-001,
          7.08823502e-001, 5.21568656e-001, 9.18627441e-001,
          5.04901946e-001, 9.13725495e-001, 3.15686285e-001,
          5.98039210e-001, 2.74509817e-001, 4.66666669e-001,
          7.84313772e-003, 3.37254912e-001, 3.37254912e-001,
          2.62745112e-001, 4.20588225e-001, 8.15686285e-001,
          8.79411757e-001, 7.36274481e-001, 2.73529410e-001,
          7.15686262e-001, 5.26470602e-001, 8.49019587e-001,
          9.96078432e-001, 8.45098019e-001, 7.27450967e-001,
          7.54901946e-001, 5.21568656e-001, 3.37254912e-001,
          2.49019608e-001, 0., 6.91176474e-001, 5.56862772e-001,
          2.97058821e-001, 1., 9.98039186e-001, 3.86274517e-001,
          9.56862748e-001, 1.49019614e-001, 9.97058809e-001,
          9.63725507e-001, 6.63725495e-001, 6.21568620e-001,
          6.82352960e-001, 4.58823532e-001, 4.73529398e-001,
          4.10784304e-001, 5.60784340e-001, 6.54901981e-001,
          2.70588249e-001, 6.81372523e-001, 7.01960802e-001,
          3.85294110e-001, 9.96078432e-001, 3.57843131e-001,
          9.79411781e-001, 1.75490201e-001, 8.60784292e-001, 1.,
          5.66666663e-001, 7.12745070e-001, 5.19607849e-002,
          3.63725483e-001, 6.91176474e-001, 5.15686274e-001,
          5.15686274e-001, 8.09803903e-001, 5.65686285e-001,
          5.20588219e-001, 4.08823520e-001, 6.06862724e-001,
          2.32352942e-001, 9.98039186e-001, 6.05882347e-001,
          3.64705890e-001, 1.90196082e-001, 7.17647076e-001,
          1.03921570e-001, 3.88235301e-001, 1.10784315e-001,
          5.62745094e-001, 2.34313726e-001, 5.26470602e-001,
          9.15686250e-001, 5.54901958e-001, 6.21568620e-001,
          5.17647088e-001, 5.60784340e-001 ]
      - [ 6.75490201e-001, 7.88235307e-001, 2.03921571e-001,
          9.17647064e-001, 5.32352924e-001, 1.15686275e-001,
          3.41176480e-001, 1.05882354e-001, 6.41176462e-001,
          9.68627453e-001, 9.84313726e-001, 2.40196079e-001,
          3.03921580e-001, 8.48039210e-001, 9.54901934e-001,
          5.95098019e-001, 6.06862724e-001, 2.51960784e-001,
          9.85294104e-001, 1.71568632e-001, 7.05882370e-001,
          3.41176480e-001, 9.87254918e-001, 5.92156887e-001,
          8.33333313e-001, 7.50980377e-001, 2.03921571e-001,
          2.38235295e-001, 8.66666675e-001, 4.49019611e-001,
          5.42156875e-001, 5.97058833e-001, 4.92156863e-001,
          7.93137252e-001, 9.79411781e-001, 3.40196073e-001,
          2.11764708e-001, 4.07843143e-001, 5.44117630e-001,
          9.32352960e-001, 9.94117618e-001, 3.68627459e-001,
          9.11764726e-002, 3.99019599e-001, 4.42156851e-001,
          4.43137258e-001, 2.43137255e-001, 3.95098031e-001,
          3.86274517e-001, 6.98039234e-001, 6.36274517e-001,
          1.79411769e-001, 4.67647046e-001, 4.14705873e-001,
          9.52941179e-001, 2.55882353e-001, 4.84313726e-001,
          3.00980389e-001, 3.85294110e-001, 9.85294104e-001,
          9.16666687e-001, 7.95098066e-001, 6.02941155e-001,
          8.91176462e-001, 7.54901990e-002, 1.47058824e-002,
          2.45098040e-001, 9.48039234e-001, 2.52941191e-001,
          1.78431377e-001, 9.69607830e-001, 2.28431374e-001,
          2.27450982e-001, 6.51960790e-001, 3.22549015e-001,
          3.03921580e-001, 4.93137240e-001, 7.71568656e-001,
          4.19607848e-001, 6.48039222e-001, 1.78431377e-001,
          5.54901958e-001, 4.18627441e-001, 5.53921580e-001,
          7.55882382e-001, 7.64705896e-001, 1.47058830e-001,
          1.81372553e-001, 8.08823526e-001, 4.18627441e-001,
          5.60784340e-001, 3.15686285e-001, 5.96078455e-001,
          5.49019635e-001, 2.44117647e-001, 2.45098040e-001,
          7.92156875e-001, 7.61764705e-001, 3.40196073e-001,
          6.77450955e-001, 3.84313732e-001, 5.68627454e-002,
          3.77450973e-001, 9.80392173e-002, 8.19607854e-001,
          1.45098045e-001, 3.30392152e-001, 2.69607842e-001,
          9.97058809e-001, 4.37254906e-001, 3.45098048e-001,
          5.83333313e-001, 1.78431377e-001, 5.35294116e-001,
          8.91176462e-001, 9.97058809e-001, 3.44117641e-001,
          3.43137264e-001, 2.35294119e-001, 7.29411781e-001,
          9.00980413e-001, 5.74509799e-001, 6.29411757e-001,
          5.73529422e-001, 4.66666669e-001, 5.53921580e-001,
          1.60784319e-001, 5.45098066e-001, 1.71568632e-001,
          8.87254894e-001, 6.49019599e-001, 3.95098031e-001,
          8.47058833e-001, 2.87254900e-001, 4.37254906e-001,
          6.00000024e-001, 7.15686262e-001, 7.69607842e-001,
          9.86274481e-001, 1.44117653e-001, 3.92156877e-002,
          9.95098054e-001, 2.93137252e-001, 4.31372553e-001,
          1.23529412e-001, 9.47058797e-001, 8.08823526e-001,
          6.30392134e-001, 8.07843149e-001, 2.52941191e-001,
          8.00000012e-001, 7.54901946e-001, 4.34313715e-001,
          8.93137276e-001, 2.91176468e-001, 4.00980383e-001,
          9.76470590e-001, 1.92156866e-001, 3.84313732e-001,
          9.93137240e-001, 3.69607836e-001, 1.62745103e-001,
          7.83333361e-001, 8.94117653e-001, 4.02941167e-001,
          2.18627453e-001, 8.15686285e-001, 2.00980395e-001,
          1.85294122e-001, 5.88235319e-001, 3.34313720e-001,
          1.64705887e-001, 2.99019605e-001, 4.60784324e-002,
          8.43137264e-001, 1.45098045e-001, 2.14705884e-001,
          8.57843161e-001, 7.54901990e-002, 8.65686297e-001,
          9.22549009e-001, 6.36274517e-001, 9.94117618e-001,
          6.92156851e-001, 3.67647052e-001, 8.40196073e-001,
          9.22549009e-001, 8.48039210e-001, 6.10784292e-001,
          1.47058830e-001, 5.29411770e-002, 1.99019611e-001,
          9.49999988e-001, 2.61764705e-001, 5.77450991e-001,
          6.76470622e-002, 4.63725477e-001, 6.60784304e-001,
          2.49019608e-001, 9.10784304e-001, 4.42156851e-001,
          4.73529398e-001, 5.31372547e-001, 4.67647046e-001,
          6.85294092e-001, 9.97058809e-001, 3.49019617e-001,
          6.69607818e-001, 3.70588243e-001, 4.35294122e-001,
          4.00000006e-001, 5.91176450e-001, 4.61764693e-001,
          2.30392158e-001, 9.20588255e-001, 5.10784328e-001,
          9.92156863e-001, 5.20588219e-001, 7.45098069e-002,
          7.92156875e-001, 6.35294139e-001, 1.41176477e-001,
          2.63725489e-001, 9.99019623e-001, 7.62745082e-001,
          6.94117665e-001, 4.14705873e-001, 4.85294104e-001,
          7.37254918e-001, 5.94117641e-001, 9.22549009e-001,
          6.87254906e-001, 6.42156839e-001, 9.01960805e-002,
          4.93137240e-001, 3.02941173e-001, 3.90196085e-001,
          5.71568608e-001, 1.15686275e-001, 9.91176486e-001,
          9.94117618e-001, 6.84313715e-001, 6.11764729e-001,
          6.27451003e-001, 8.47058833e-001, 5.02941191e-001,
          1.09803922e-001, 8.49019587e-001, 8.49019587e-001,
          8.56862724e-001, 2.23529413e-001, 3.80392164e-001,
          9.77450967e-001, 2.64705896e-001, 1.31372556e-001, 1. ]
      - [ 5.97058833e-001, 3.65686268e-001, 3.19607854e-001,
          3.92156877e-002, 4.61764693e-001, 5.45098066e-001,
          8.34313750e-001, 2.10784316e-001, 1.28431380e-001,
          2.34313726e-001, 5.44117630e-001, 4.44117635e-001,
          9.68627453e-001, 4.54901963e-001, 2.92156875e-001,
          7.28431344e-001, 2.69607842e-001, 4.56862748e-001,
          3.54901969e-001, 6.49019599e-001, 2.68627465e-001,
          4.87254888e-001, 3.09803933e-001, 8.99999976e-001,
          4.62745100e-001, 7.36274481e-001, 8.16666663e-001,
          8.42156887e-001, 5.51960766e-001, 8.69607866e-001,
          4.51960772e-001, 3.83333325e-001, 2.89215684e-001,
          1.64705887e-001, 4.30392146e-001, 8.72548997e-001,
          6.31372571e-001, 7.01960802e-001, 4.21568632e-001,
          4.79411751e-001, 2.50000000e-001, 8.90196085e-001,
          7.16666639e-001, 9.63725507e-001, 6.84313715e-001,
          6.79411769e-001, 5.79411745e-001, 5.04901946e-001,
          5.42156875e-001, 1.23529412e-001, 7.12745070e-001,
          2.00000003e-001, 3.39215696e-001, 3.00000012e-001,
          8.03921580e-001, 8.80392134e-001, 6.96078420e-001,
          7.15686262e-001, 5.88235319e-001, 7.45098054e-001,
          5.19607842e-001, 4.27450985e-001, 6.67647064e-001,
          5.02941191e-001, 5.01960814e-001, 4.22549009e-001,
          5.83333313e-001, 9.95098054e-001, 7.23529398e-001,
          1.79411769e-001, 8.39215696e-001, 9.91176486e-001,
          8.82352963e-002, 4.93137240e-001, 7.84313753e-002,
          2.25490198e-001, 0., 3.78431380e-001, 9.96078432e-001,
          5.87254882e-001, 7.22549021e-001, 8.55882347e-001,
          6.27451003e-001, 3.44117641e-001, 8.21568608e-001,
          5.70588231e-001, 8.28431368e-001, 2.91176468e-001,
          7.78431356e-001, 7.57843137e-001, 1.80392161e-001,
          8.47058833e-001, 5.15686274e-001, 4.11764711e-001,
          5.36274493e-001, 1.27450982e-002, 7.47058809e-001,
          6.21568620e-001, 5.61764717e-001, 4.77450967e-001,
          9.75490212e-001, 3.80392164e-001, 2.30392158e-001,
          5.75490177e-001, 3.41176480e-001, 6.10784292e-001,
          6.62745118e-001, 1.55882359e-001, 4.70588237e-001,
          1.14705883e-001, 3.53921562e-001, 9.76470590e-001,
          3.57843131e-001, 4.92156863e-001, 4.83333319e-001,
          8.00000012e-001, 8.61764729e-001, 5.90196073e-001,
          1.20588236e-001, 6.92156851e-001, 6.31372571e-001,
          3.13725509e-002, 9.63725507e-001, 2.45098043e-002,
          9.72549021e-001, 4.05882359e-001, 1.23529412e-001,
          7.92156875e-001, 3.71568620e-001, 5.04901946e-001,
          4.83333319e-001, 9.87254918e-001, 8.81372571e-001,
          1.37254909e-001, 6.73529387e-001, 1.21568628e-001,
          4.35294122e-001, 5.33333361e-001, 9.99019623e-001,
          2.60784328e-001, 9.60784331e-002, 4.16666657e-001,
          6.70588255e-001, 9.98039186e-001, 3.60784322e-001,
          7.14705884e-001, 4.21568632e-001, 8.06862772e-001,
          9.38235283e-001, 1.82352945e-001, 2.29411766e-001,
          6.69607818e-001, 2.35294119e-001, 7.54901990e-002,
          9.97058809e-001, 9.68627453e-001, 2.61764705e-001,
          4.33333337e-001, 2.31372550e-001, 4.57843125e-001,
          6.66666687e-001, 3.74509811e-001, 3.60784322e-001,
          3.95098031e-001, 9.21568632e-001, 3.40196073e-001,
          3.82352948e-001, 3.42156857e-001, 2.74509817e-001,
          2.26470590e-001, 1.72549024e-001, 4.39215690e-001,
          3.69607836e-001, 1.23529412e-001, 1.08823530e-001,
          7.09803939e-001, 3.44117641e-001, 2.80392170e-001,
          2.38235295e-001, 9.99019623e-001, 2.30392158e-001,
          3.52941185e-001, 9.50980365e-001, 7.39215672e-001,
          3.35294127e-001, 8.36274505e-001, 7.16666639e-001,
          3.25490206e-001, 6.77450955e-001, 2.66666681e-001,
          7.27450967e-001, 5.04901946e-001, 7.85294116e-001,
          9.36274529e-001, 7.06862748e-001, 9.25490201e-001,
          9.04901981e-001, 5.00000000e-001, 3.59803915e-001,
          7.67647088e-001, 6.07843161e-001, 5.92156887e-001,
          3.45098048e-001, 7.15686262e-001, 4.69607830e-001,
          1.67647064e-001, 6.83333337e-001, 7.56862760e-001,
          5.42156875e-001, 3.83333325e-001, 9.64705884e-001,
          4.62745100e-001, 4.16666657e-001, 5.49019635e-001,
          2.53921568e-001, 2.95098037e-001, 3.77450973e-001,
          3.07843149e-001, 8.13725516e-002, 9.24509823e-001,
          8.22549045e-001, 3.65686268e-001, 2.04901963e-001,
          9.97058809e-001, 7.54901946e-001, 5.16666651e-001,
          6.43137276e-001, 4.44117635e-001, 7.13725507e-001,
          8.45098019e-001, 4.77450967e-001, 7.05882370e-001,
          2.63725489e-001, 3.38235289e-001, 9.84313726e-001,
          1.40196085e-001, 7.38235295e-001, 8.29411745e-001,
          3.11764717e-001, 5.57843149e-001, 4.01960790e-001,
          9.65686262e-001, 3.46078426e-001, 1.49019614e-001,
          6.99999988e-001, 4.84313726e-001, 4.21568632e-001,
          3.43137264e-001, 9.03921545e-001, 5.18627465e-001,
          6.86274529e-001, 5.34313738e-001, 1.20588236e-001,
          4.52941179e-001, 7.45098054e-001, 6.45098031e-001 ]
      - [ 4.19607848e-001, 9.98039186e-001, 2.81372547e-001,
          9.31372523e-001, 3.21568638e-001, 5.80392182e-001,
          2.65686274e-001, 1.40196085e-001, 2.09803924e-001,
          6.86274529e-001, 6.60784304e-001, 5.83333313e-001,
          7.46078432e-001, 6.86274543e-002, 9.36274529e-001,
          3.38235289e-001, 2.88235307e-001, 6.15686297e-001,
          6.84313715e-001, 4.28431362e-001, 7.77450979e-001,
          7.13725507e-001, 9.95098054e-001, 2.73529410e-001,
          3.09803933e-001, 6.31372571e-001, 9.57843125e-001,
          6.09803915e-001, 5.57843149e-001, 4.66666669e-001,
          3.82352948e-001, 3.58823538e-001, 4.68627453e-001,
          7.90196061e-001, 8.61764729e-001, 8.04901958e-001,
          3.30392152e-001, 5.56862772e-001, 1.47058830e-001,
          2.03921571e-001, 8.73529434e-001, 4.96078432e-001,
          5.28431356e-001, 9.59803939e-001, 5.16666651e-001,
          9.21568632e-001, 6.44117653e-001, 6.47058859e-002,
          9.99019623e-001, 2.63725489e-001, 5.08823514e-001,
          5.00000000e-001, 6.85294092e-001, 6.20588243e-001,
          7.79411793e-001, 1.00000001e-001, 6.33333325e-001,
          1.35294124e-001, 6.57843113e-001, 6.31372571e-001,
          4.40196067e-001, 1.00980394e-001, 4.11764711e-001,
          3.49999994e-001, 5.07843137e-001, 1.66666675e-002,
          1.39215693e-001, 7.42156863e-001, 4.57843125e-001,
          2.96078444e-001, 2.98039228e-001, 2.42156863e-001,
          5.52941203e-001, 9.99019623e-001, 7.20588207e-001,
          8.87254894e-001, 6.98039234e-001, 5.87254882e-001,
          2.35294119e-001, 3.17647070e-001, 5.51960766e-001,
          3.39215696e-001, 9.31372568e-002, 8.62745121e-002,
          5.70588231e-001, 9.62745070e-001, 1.56862751e-001,
          3.05882365e-001, 6.07843138e-002, 3.44117641e-001,
          9.97058809e-001, 6.64705873e-001, 9.98039186e-001,
          9.03921545e-001, 7.14705884e-001, 3.22549015e-001,
          4.67647046e-001, 8.33333358e-002, 8.28431368e-001,
          7.50980377e-001, 7.89215684e-001, 5.17647088e-001,
          2.39215687e-001, 7.85294116e-001, 7.19607830e-001,
          9.70588252e-002, 9.71568644e-001, 4.16666657e-001,
          4.14705873e-001, 3.75490189e-001, 4.76470590e-001,
          5.24509788e-001, 3.04901958e-001, 4.02941167e-001,
          5.32352924e-001, 8.17647040e-001, 5.09803951e-001,
          9.91176486e-001, 5.40196061e-001, 5.46078444e-001,
          5.78431368e-001, 9.22549009e-001, 8.62745106e-001,
          5.77450991e-001, 4.69607830e-001, 6.91176474e-001,
          1.50000006e-001, 1.13725491e-001, 3.87254894e-001,
          9.84313726e-001, 8.42156887e-001, 5.09803951e-001,
          5.72549045e-001, 9.77450967e-001, 8.95098031e-001,
          5.39215684e-001, 9.50980410e-002, 6.91176474e-001,
          3.40196073e-001, 6.72549009e-001, 3.43137264e-001,
          7.18627453e-001, 3.49999994e-001, 8.10784340e-001,
          5.81372559e-001, 3.91176462e-001, 1.95098042e-001,
          9.97058809e-001, 4.90196096e-003, 8.76470566e-001,
          6.76470622e-002, 1.29411772e-001, 9.01960805e-002,
          4.95098025e-001, 8.96078408e-001, 2.92156875e-001,
          4.06862736e-001, 9.84313726e-001, 7.74509788e-001,
          5.72549045e-001, 6.86274529e-001, 9.97058809e-001,
          3.36274505e-001, 1.47058830e-001, 2.10784316e-001,
          5.62745094e-001, 2.66666681e-001, 1., 8.81372571e-001,
          2.13725492e-001, 4.80392158e-001, 5.34313738e-001,
          6.25490189e-001, 8.83333325e-001, 2.39215687e-001,
          5.20588219e-001, 7.39215672e-001, 4.19607848e-001,
          3.43137264e-001, 2.23529413e-001, 6.82352960e-001,
          6.43137276e-001, 9.80392158e-001, 5.37254930e-001,
          6.49019599e-001, 8.20588231e-001, 8.70588243e-001,
          9.11764726e-002, 6.82352960e-001, 7.26470590e-001, 0.,
          2.54901964e-002, 3.62745106e-001, 2.62745112e-001, 1.,
          1.74509808e-001, 9.79411781e-001, 1., 1.02941178e-001,
          6.13725483e-001, 7.36274481e-001, 7.44117618e-001,
          5.24509788e-001, 7.60784328e-001, 6.92156851e-001,
          2.78431386e-001, 5.23529410e-001, 5.31372547e-001,
          3.00980389e-001, 9.98039186e-001, 5.41176498e-001,
          2.38235295e-001, 4.96078432e-001, 8.98039222e-001,
          6.49999976e-001, 5.09803951e-001, 3.90196085e-001,
          3.27450991e-001, 2.13725492e-001, 7.26470590e-001,
          5.68627477e-001, 8.36274505e-001, 5.11764705e-001,
          9.96078432e-001, 3.62745106e-001, 2.83333331e-001,
          5.01960814e-001, 6.85294092e-001, 4.00000006e-001,
          5.30392170e-001, 5.49019635e-001, 7.75490224e-001,
          9.54901934e-001, 2.37254903e-001, 3.37254912e-001,
          8.36274505e-001, 7.56862760e-001, 6.57843113e-001,
          3.08823526e-001, 7.43137240e-001, 9.93137240e-001,
          5.99019587e-001, 1.28431380e-001, 3.14705878e-001,
          5.26470602e-001, 4.86274511e-001, 4.55882341e-001,
          5.88235306e-003, 3.33333343e-001, 9.56862748e-001,
          4.94117647e-001, 2.82352954e-001, 8.36274505e-001,
          7.96078444e-001, 6.73529387e-001, 7.00980365e-001 ]
      - [ 6.51960790e-001, 2.22549021e-001, 5.77450991e-001,
          3.03921580e-001, 4.15686280e-001, 3.64705890e-001,
          5.27450979e-001, 2.29411766e-001, 1.07843138e-001,
          6.52941167e-001, 8.43137279e-002, 4.49999988e-001,
          5.54901958e-001, 2.79411763e-001, 5.23529410e-001,
          8.42156887e-001, 5.81372559e-001, 2.24509805e-001,
          4.90196086e-002, 4.06862736e-001, 7.94117674e-002,
          3.58823538e-001, 5.67647040e-001, 1.89215690e-001,
          2.24509805e-001, 9.98039186e-001, 7.80392170e-001,
          5.36274493e-001, 7.63725519e-001, 6.08823538e-001,
          3.07843149e-001, 2.25490201e-002, 7.41176486e-001,
          5.10784328e-001, 3.42156857e-001, 3.54901969e-001,
          6.57843113e-001, 5.84313750e-001, 3.97058815e-001,
          4.35294122e-001, 5.31372547e-001, 7.82352924e-001,
          2.56862760e-001, 1.53921574e-001, 4.11764711e-001,
          3.04901958e-001, 9.50980410e-002, 5.18627465e-001,
          4.96078432e-001, 1.45098045e-001, 7.45098054e-001,
          3.85294110e-001, 5.66666663e-001, 7.36274481e-001,
          9.91176486e-001, 4.64705884e-001, 7.17647076e-001,
          7.09803939e-001, 7.76470602e-001, 6.14705861e-001,
          2.18627453e-001, 9.85294104e-001, 6.39215708e-001,
          9.98039186e-001, 2.87254900e-001, 3.30392152e-001,
          9.07843113e-001, 2.05882359e-002, 8.05882335e-001,
          2.60784328e-001, 4.74509805e-001, 7.18627453e-001,
          4.87254888e-001, 5.21568656e-001, 7.83333361e-001,
          5.94117641e-001, 9.38235283e-001, 1.85294122e-001,
          3.24509799e-001, 4.03921574e-001, 8.58823538e-001,
          9.45098042e-001, 9.97058809e-001, 7.26470590e-001,
          7.04901934e-001, 7.59803951e-001, 8.50980401e-001,
          4.84313726e-001, 8.02941203e-001, 9.99019623e-001,
          6.78431392e-001, 1.04901962e-001, 2.95098037e-001,
          3.55882347e-001, 9.50980410e-002, 1.55882359e-001,
          5.79411745e-001, 8.67647052e-001, 4.09803927e-001,
          2.20588237e-001, 5.74509799e-001, 5.50000012e-001,
          8.24509799e-001, 1.51960790e-001, 8.68627429e-001,
          5.53921580e-001, 3.57843131e-001, 6.90196097e-001,
          5.25490224e-001, 6.21568620e-001, 5.94117641e-001,
          5.25490224e-001, 6.81372523e-001, 1.51960790e-001,
          6.62745118e-001, 8.42156887e-001, 6.47058845e-001,
          9.49999988e-001, 6.59803927e-001, 5.83333313e-001,
          2.80392170e-001, 9.19607818e-001, 4.95098025e-001,
          3.80392164e-001, 5.33333361e-001, 0., 9.59803939e-001,
          6.43137276e-001, 6.29411757e-001, 7.95098066e-001,
          1.55882359e-001, 2.00980395e-001, 5.12745082e-001,
          6.04901969e-001, 2.67647058e-001, 4.49999988e-001,
          8.33333358e-002, 6.65686250e-001, 8.55882347e-001,
          5.51960766e-001, 1.37254909e-001, 4.96078432e-001,
          5.09803928e-002, 2.71568626e-001, 8.10784340e-001,
          9.99019623e-001, 9.98039186e-001, 8.40196073e-001,
          4.07843143e-001, 5.46078444e-001, 6.72549009e-001,
          9.97058809e-001, 3.43137264e-001, 7.37254918e-001,
          8.54901969e-001, 6.38235271e-001, 3.37254912e-001,
          3.07843149e-001, 1.93137258e-001, 1.35294124e-001,
          6.27451017e-002, 9.96078432e-001, 1.72549024e-001,
          6.41176462e-001, 9.47058797e-001, 3.97058815e-001,
          7.45098054e-001, 6.49999976e-001, 7.92156875e-001,
          8.01960766e-001, 6.48039222e-001, 6.35294139e-001,
          9.08823550e-001, 8.48039210e-001, 2.77450979e-001,
          9.49019611e-001, 3.00000012e-001, 3.71568620e-001,
          6.35294139e-001, 2.04901963e-001, 2.79411763e-001,
          6.91176474e-001, 6.37254894e-001, 2.35294122e-002,
          5.95098019e-001, 4.58823532e-001, 7.69607842e-001,
          3.49019617e-001, 4.44117635e-001, 8.86274517e-001,
          8.50980401e-001, 6.27451003e-001, 3.63725483e-001,
          9.93137240e-001, 1.14705883e-001, 9.75490212e-001,
          6.42156839e-001, 4.92156863e-001, 1.90196082e-001,
          2.42156863e-001, 4.81372535e-001, 1.88235298e-001,
          8.54901969e-001, 4.51960772e-001, 5.00000000e-001,
          6.66666701e-002, 6.56862780e-002, 3.89215678e-001,
          8.54901969e-001, 3.41176480e-001, 4.95098025e-001,
          8.71568620e-001, 3.70588243e-001, 9.26470578e-001,
          5.16666651e-001, 3.75490189e-001, 2.08823532e-001,
          4.63725477e-001, 4.75490183e-001, 5.48039198e-001,
          3.12745094e-001, 8.67647052e-001, 9.74509776e-001,
          6.70588255e-001, 3.23529422e-001, 4.51960772e-001,
          3.04901958e-001, 3.72549027e-001, 4.61764693e-001,
          1.38235301e-001, 5.88235306e-003, 4.68627453e-001,
          6.40196085e-001, 4.82352942e-001, 8.66666675e-001,
          6.90196097e-001, 2.21568629e-001, 1.17647061e-002,
          1.44117653e-001, 1., 7.28431344e-001, 1.57843143e-001,
          4.60784316e-001, 5.59803903e-001, 8.15686285e-001,
          5.82352936e-001, 7.39215672e-001, 4.68627453e-001,
          1.70588240e-001, 9.94117618e-001, 5.08823514e-001,
          7.69607842e-001, 3.04901958e-001, 2.55882353e-001,
          3.92156886e-003, 2.41176471e-001 ]
      - [ 2.09803924e-001, 1.00000001e-001, 3.15686285e-001,
          8.42156887e-001, 9.80392192e-003, 3.52941185e-001,
          6.51960790e-001, 6.37254894e-001, 2.79411763e-001,
          3.49019617e-001, 5.00000000e-001, 8.15686285e-001,
          7.49019623e-001, 9.50980365e-001, 6.06862724e-001,
          9.47058797e-001, 7.50000000e-001, 9.97058809e-001,
          6.65686250e-001, 6.91176474e-001, 9.31372568e-002,
          3.20588231e-001, 1.97058827e-001, 2.68627465e-001,
          1.83333337e-001, 5.37254930e-001, 9.97058809e-001,
          3.46078426e-001, 2.78431386e-001, 4.04901952e-001,
          3.92156869e-001, 8.47058833e-001, 3.28431368e-001,
          4.28431362e-001, 3.62745106e-001, 9.88235295e-001,
          8.15686285e-001, 3.87254894e-001, 9.97058809e-001,
          6.11764729e-001, 9.87254918e-001, 6.20588243e-001,
          2.03921571e-001, 6.04901969e-001, 1.88235298e-001,
          6.91176474e-001, 1.95098042e-001, 4.41176482e-002,
          8.25490177e-001, 2.92156875e-001, 6.72549009e-001,
          3.46078426e-001, 3.42156857e-001, 1.28431380e-001,
          5.45098066e-001, 5.21568656e-001, 3.26470584e-001,
          4.82352942e-001, 4.13725495e-001, 3.18627447e-001,
          1.24509804e-001, 8.53921592e-001, 5.83333313e-001,
          5.49019635e-001, 8.52941200e-002, 1.82352945e-001,
          9.98039186e-001, 3.73529404e-001, 2.50980407e-001,
          4.62745100e-001, 6.98039234e-001, 6.38235271e-001,
          6.71568632e-001, 4.47058827e-001, 1.70588240e-001,
          2.35294119e-001, 2.70588249e-001, 3.59803915e-001,
          3.29411775e-001, 9.99019623e-001, 3.70588243e-001,
          8.76470566e-001, 7.74509832e-002, 3.27450991e-001,
          6.47058859e-002, 5.16666651e-001, 1.63725495e-001,
          5.30392170e-001, 3.07843149e-001, 8.00000012e-001,
          7.87254930e-001, 8.81372571e-001, 2.32352942e-001,
          6.96078420e-001, 6.60784304e-001, 0., 4.63725477e-001,
          7.59803951e-001, 6.80392146e-001, 4.14705873e-001,
          2.21568629e-001, 9.41176474e-001, 2.81372547e-001,
          6.06862724e-001, 6.20588243e-001, 7.50980377e-001,
          4.37254906e-001, 3.88235301e-001, 6.75490201e-001,
          9.96078432e-001, 8.78431380e-001, 4.77450967e-001,
          8.00980389e-001, 6.00000024e-001, 9.61764693e-001,
          4.00000006e-001, 5.13725519e-001, 5.05882382e-001,
          8.39215696e-001, 8.55882347e-001, 4.03921574e-001,
          5.69607854e-001, 9.61764693e-001, 5.58823526e-001,
          8.14705908e-001, 5.66666663e-001, 6.70588255e-001,
          4.76470590e-001, 9.28431392e-001, 5.81372559e-001,
          2.34313726e-001, 2.23529413e-001, 9.14705873e-001,
          2.66666681e-001, 6.59803927e-001, 1.37254903e-002,
          7.74509832e-002, 9.18627441e-001, 8.63725483e-001,
          7.16666639e-001, 6.10784292e-001, 3.26470584e-001,
          8.44117641e-001, 1.80392161e-001, 9.32352960e-001,
          7.43137240e-001, 1.85294122e-001, 7.49019623e-001,
          2.54901975e-001, 4.50980395e-001, 2.86274523e-001,
          8.67647052e-001, 1.38235301e-001, 8.72548997e-001,
          3.77450973e-001, 2.88235307e-001, 7.50000000e-001,
          3.04901958e-001, 6.04901969e-001, 6.24509811e-001,
          8.91176462e-001, 5.53921580e-001, 2.22549021e-001,
          2.38235295e-001, 9.20588255e-001, 5.30392170e-001,
          7.56862760e-001, 5.97058833e-001, 2.77450979e-001,
          6.96078420e-001, 6.67647064e-001, 3.83333325e-001,
          5.85294127e-001, 5.55882335e-001, 4.93137240e-001,
          3.74509811e-001, 9.98039186e-001, 3.60784322e-001,
          2.94117653e-003, 9.94117618e-001, 3.92156877e-002,
          6.49019599e-001, 3.09803933e-001, 2.34313726e-001,
          3.72549027e-001, 7.97058821e-001, 4.01960798e-002,
          5.50000012e-001, 5.13725519e-001, 6.21568620e-001,
          2.02941179e-001, 9.21568647e-002, 0., 6.50980413e-001,
          1.17647059e-001, 3.46078426e-001, 9.28431392e-001,
          4.26470578e-001, 7.64705896e-001, 4.54901963e-001,
          1.37254909e-001, 2.84313738e-001, 4.30392146e-001,
          7.22549021e-001, 2.20588237e-001, 3.00980389e-001,
          9.92156863e-001, 7.37254918e-001, 4.62745100e-001,
          2.69607842e-001, 2.95098037e-001, 6.95098042e-001,
          2.74509806e-002, 5.02941191e-001, 2.03921571e-001,
          7.84313772e-003, 7.29411781e-001, 6.49019599e-001,
          4.22549009e-001, 7.99019635e-001, 9.00980413e-001,
          8.43137264e-001, 4.31372561e-002, 2.14705884e-001,
          4.62745100e-001, 5.50000012e-001, 8.54901969e-001,
          7.61764705e-001, 5.00980377e-001, 1.91176474e-001,
          7.16666639e-001, 2.97058821e-001, 5.11764705e-001,
          3.11764717e-001, 8.33333358e-002, 2.37254903e-001,
          2.16666669e-001, 9.50980365e-001, 5.72549045e-001,
          6.31372571e-001, 1.25490203e-001, 9.92156863e-001,
          3.10784310e-001, 2.40196079e-001, 4.97058809e-001,
          8.85294139e-001, 3.49999994e-001, 2.95098037e-001,
          5.65686285e-001, 6.00000024e-001, 7.71568656e-001,
          4.76470590e-001, 3.52941185e-001, 5.05882382e-001,
          9.64705884e-001, 1.91176474e-001 ]
      - [ 9.99019623e-001, 6.27451017e-002, 3.64705890e-001,
          9.21568647e-002, 5.27450979e-001, 2.13725492e-001,
          6.54901981e-001, 3.26470584e-001, 6.02941155e-001,
          7.43137240e-001, 1.59803927e-001, 9.30392146e-001, 1.,
          5.04901946e-001, 4.22549009e-001, 5.59803903e-001,
          4.02941167e-001, 9.94117618e-001, 1., 5.36274493e-001,
          3.22549015e-001, 3.09803933e-001, 3.46078426e-001,
          7.13725507e-001, 2.13725492e-001, 8.68627429e-001,
          5.27450979e-001, 6.37254894e-001, 4.64705884e-001,
          1.63725495e-001, 9.27450955e-001, 3.51960778e-001,
          8.69607866e-001, 8.41176450e-001, 3.28431368e-001,
          2.66666681e-001, 9.77450967e-001, 8.78431380e-001,
          7.48039186e-001, 4.81372535e-001, 1.60784319e-001,
          4.67647046e-001, 8.43137279e-002, 8.35294127e-001,
          8.92156884e-002, 4.38235283e-001, 4.14705873e-001,
          3.11764717e-001, 9.96078432e-001, 8.80392134e-001,
          4.40196067e-001, 9.48039234e-001, 8.13725516e-002,
          7.83333361e-001, 3.96078438e-001, 3.92156869e-001,
          2.89215684e-001, 6.48039222e-001, 6.84313715e-001,
          7.20588207e-001, 6.56862736e-001, 7.84313753e-002,
          7.51960814e-001, 6.06862724e-001, 4.48039204e-001,
          4.76470590e-001, 1.34313732e-001, 1.20588236e-001,
          7.32352912e-001, 2.49019608e-001, 3.25490206e-001,
          4.62745100e-001, 6.74509823e-001, 8.87254894e-001,
          8.86274517e-001, 7.59803951e-001, 5.03921568e-001,
          9.86274481e-001, 1.76470593e-001, 6.73529387e-001,
          8.03921580e-001, 6.17647052e-001, 8.10784340e-001,
          2.14705884e-001, 9.97058809e-001, 6.15686297e-001,
          7.31372535e-001, 6.88235283e-001, 2.50000000e-001,
          2.04901963e-001, 1.44117653e-001, 4.27450985e-001,
          8.42156887e-001, 5.67647040e-001, 2.80392170e-001,
          7.78431356e-001, 3.53921562e-001, 7.51960814e-001,
          5.56862772e-001, 3.88235301e-001, 2.22549021e-001,
          8.32352936e-001, 9.08823550e-001, 7.15686262e-001,
          7.54901946e-001, 4.47058827e-001, 3.14705878e-001,
          9.01960790e-001, 2.53921568e-001, 9.92156863e-001,
          5.88235319e-001, 5.84313750e-001, 5.82352936e-001,
          2.21568629e-001, 9.99019623e-001, 5.31372547e-001,
          9.55882370e-001, 4.84313726e-001, 4.87254888e-001,
          9.09803927e-001, 6.50980413e-001, 4.40196067e-001,
          8.41176450e-001, 4.14705873e-001, 4.01960798e-002,
          2.48039216e-001, 2.08823532e-001, 7.25490212e-001,
          3.12745094e-001, 1.32352948e-001, 9.08823550e-001,
          1.80392161e-001, 1.43137261e-001, 5.01960814e-001,
          2.57843137e-001, 6.29411757e-001, 7.45098069e-002,
          2.43137255e-001, 3.75490189e-001, 3.00980389e-001,
          3.47058833e-001, 4.41176474e-001, 6.61764681e-001,
          4.00980383e-001, 2.34313726e-001, 2.03921571e-001,
          6.30392134e-001, 8.26470613e-001, 2.07843140e-001,
          2.09803924e-001, 7.83333361e-001, 1.90196082e-001,
          2.04901963e-001, 4.00980383e-001, 3.28431368e-001,
          7.98039198e-001, 2.76470602e-001, 2.91176468e-001,
          9.83333349e-001, 9.47058797e-001, 8.98039222e-001,
          6.74509823e-001, 2.35294122e-002, 6.85294092e-001,
          1.28431380e-001, 4.32352930e-001, 4.43137258e-001,
          3.72549035e-002, 9.98039186e-001, 6.58823550e-001,
          3.91176462e-001, 4.60784316e-001, 7.17647076e-001,
          2.23529413e-001, 6.74509823e-001, 8.12745094e-001,
          1.17647059e-001, 2.15686280e-002, 9.91176486e-001,
          8.13725516e-002, 2.04901963e-001, 7.08823502e-001,
          7.30392158e-001, 9.28431392e-001, 9.99019623e-001,
          2.34313726e-001, 3.90196085e-001, 3.46078426e-001,
          4.78431374e-001, 6.23529434e-001, 1.56862751e-001, 0.,
          6.33333325e-001, 2.01960787e-001, 5.68627477e-001,
          3.36274505e-001, 6.52941167e-001, 8.28431368e-001,
          2.98039228e-001, 4.58823532e-001, 6.50980413e-001,
          8.10784340e-001, 1.18627451e-001, 6.81372523e-001,
          5.79411745e-001, 6.31372571e-001, 1.48039222e-001,
          7.95098066e-001, 9.41176474e-001, 3.93137246e-001,
          7.44117618e-001, 4.29411769e-001, 3.51960778e-001,
          4.89215672e-001, 7.64705911e-002, 1.57843143e-001,
          4.87254888e-001, 4.83333319e-001, 6.85294092e-001,
          5.00980377e-001, 5.78431368e-001, 9.11764726e-002,
          9.60784331e-002, 6.49019599e-001, 2.35294122e-002,
          1.58823535e-001, 2.12745100e-001, 2.97058821e-001,
          4.92156863e-001, 2.23529413e-001, 4.01960790e-001,
          3.60784322e-001, 3.13725501e-001, 9.96078432e-001,
          8.09803903e-001, 9.71568644e-001, 5.83333313e-001,
          7.11764693e-001, 9.05882359e-001, 1.65686280e-001,
          8.64705861e-001, 2.67647058e-001, 9.67647076e-001,
          6.00000024e-001, 4.31372553e-001, 4.91176456e-001,
          7.52941191e-001, 3.30392152e-001, 7.00980365e-001,
          8.27450991e-001, 2.11764708e-001, 2.84313738e-001,
          3.61764699e-001, 8.64705861e-001, 0., 7.20588207e-001 ]
      - [ 9.54901934e-001, 8.94117653e-001, 7.64705896e-001,
          2.76470602e-001, 2.35294122e-002, 1.75490201e-001,
          2.93137252e-001, 6.99019611e-001, 1.56862754e-002,
          3.86274517e-001, 5.45098066e-001, 3.10784310e-001,
          9.13725495e-001, 7.35294104e-001, 8.67647052e-001,
          2.45098043e-002, 9.91176486e-001, 9.93137240e-001,
          9.11764681e-001, 2.05882356e-001, 1.55882359e-001,
          5.68627477e-001, 5.98039210e-001, 6.88235283e-001,
          6.83333337e-001, 5.01960814e-001, 6.32352948e-001,
          8.21568608e-001, 7.37254918e-001, 5.81372559e-001,
          3.06862742e-001, 7.54901990e-002, 1.37254903e-002,
          9.24509823e-001, 7.20588207e-001, 7.35294104e-001,
          5.39215691e-002, 1.10784315e-001, 2.89215684e-001,
          4.89215672e-001, 4.98039216e-001, 9.65686262e-001,
          8.90196085e-001, 7.45098054e-001, 9.27450955e-001,
          6.76470578e-001, 2.86274523e-001, 1.80392161e-001,
          7.83333361e-001, 9.97058809e-001, 9.56862748e-001,
          8.49019587e-001, 4.30392146e-001, 6.99999988e-001,
          9.30392146e-001, 8.03921580e-001, 7.12745070e-001,
          5.92156887e-001, 5.09803951e-001, 9.06862736e-001,
          7.93137252e-001, 5.27450979e-001, 6.34313703e-001,
          7.27450967e-001, 8.54901969e-001, 2.03921571e-001,
          2.74509806e-002, 9.97058809e-001, 2.62745112e-001,
          2.00980395e-001, 9.83333349e-001, 9.94117618e-001,
          7.66666651e-001, 5.68627477e-001, 2.59803921e-001,
          1.50980398e-001, 9.37254906e-001, 9.80392215e-004,
          2.04901963e-001, 5.27450979e-001, 1.90196082e-001,
          7.81372547e-001, 8.23529422e-001, 7.84313772e-003,
          3.68627459e-001, 7.36274481e-001, 3.02941173e-001,
          9.76470590e-001, 2.75490195e-001, 1.59803927e-001,
          5.84313750e-001, 4.90196086e-002, 1.59803927e-001,
          9.99019623e-001, 3.75490189e-001, 4.50980395e-001,
          1.31372556e-001, 9.40196097e-001, 4.88235295e-001,
          4.49999988e-001, 4.01960790e-001, 2.95098037e-001,
          4.26470578e-001, 9.31372568e-002, 4.18627441e-001,
          4.94117647e-001, 5.75490177e-001, 6.30392134e-001,
          8.31372559e-001, 2.84313738e-001, 2.32352942e-001,
          2.47058824e-001, 3.43137264e-001, 9.97058809e-001,
          5.24509788e-001, 9.91176486e-001, 8.58823538e-001,
          6.62745118e-001, 6.89215660e-001, 3.53921562e-001,
          9.69607830e-001, 9.97058809e-001, 2.00000003e-001,
          5.54901958e-001, 3.96078438e-001, 5.44117630e-001,
          3.65686268e-001, 9.70588207e-001, 3.27450991e-001,
          6.15686297e-001, 9.89215672e-001, 7.63725519e-001,
          6.51960790e-001, 4.64705884e-001, 4.22549009e-001,
          4.38235283e-001, 9.96078432e-001, 7.30392158e-001,
          9.39215660e-001, 9.76470590e-001, 1.82352945e-001,
          5.07843137e-001, 8.82352948e-001, 3.92156886e-003,
          9.99019623e-001, 6.34313703e-001, 7.44117618e-001,
          8.93137276e-001, 3.68627459e-001, 4.00980383e-001,
          3.08823526e-001, 8.82352948e-001, 7.77450979e-001, 1.,
          3.34313720e-001, 6.57843113e-001, 7.90196061e-001,
          8.00000012e-001, 6.76470622e-002, 7.61764705e-001,
          3.80392164e-001, 6.81372523e-001, 1.47058824e-002,
          2.72549033e-001, 3.22549015e-001, 8.07843149e-001,
          2.01960787e-001, 6.19607866e-001, 4.63725477e-001,
          2.58823544e-001, 2.64705885e-002, 4.11764711e-001,
          8.92156884e-002, 1.77450985e-001, 5.20588219e-001,
          2.69607842e-001, 4.05882359e-001, 1.46078438e-001,
          1.99019611e-001, 4.78431374e-001, 7.37254918e-001,
          4.68627453e-001, 1.63725495e-001, 6.74509823e-001,
          5.56862772e-001, 6.03921592e-001, 6.44117653e-001,
          1.50980398e-001, 1.50000006e-001, 1., 6.75490201e-001,
          6.46078408e-001, 7.84313753e-002, 3.83333325e-001,
          3.19607854e-001, 9.99019623e-001, 8.29411745e-001,
          9.93137240e-001, 3.02941173e-001, 5.27450979e-001,
          8.60784292e-001, 1.97058827e-001, 4.37254906e-001,
          1.74509808e-001, 8.84313703e-001, 1.57843143e-001,
          3.14705878e-001, 8.05882335e-001, 9.84313726e-001,
          9.89215672e-001, 4.90196096e-003, 3.92156877e-002,
          3.41176480e-001, 3.54901969e-001, 9.97058809e-001,
          6.36274517e-001, 4.07843143e-001, 7.02941179e-001,
          7.38235295e-001, 2.48039216e-001, 2.16666669e-001,
          3.25490206e-001, 3.41176480e-001, 4.02941167e-001,
          2.26470590e-001, 1.41176477e-001, 1.18627451e-001,
          9.09803927e-001, 7.56862760e-001, 8.07843149e-001,
          4.41176482e-002, 2.64705885e-002, 3.44117641e-001,
          5.57843149e-001, 1.65686280e-001, 7.64705896e-001,
          4.59803909e-001, 5.26470602e-001, 9.98039186e-001,
          9.14705873e-001, 7.00980365e-001, 1.03921570e-001,
          1.20588236e-001, 8.74509811e-001, 4.33333337e-001,
          6.82352960e-001, 3.97058815e-001, 8.50000024e-001,
          9.94117618e-001, 9.99019623e-001, 2.14705884e-001,
          8.15686285e-001, 1.81372553e-001, 1.64705887e-001,
          2.52941191e-001, 8.52941200e-002 ]
      - [ 4.01960790e-001, 2.95098037e-001, 7.57843137e-001,
          3.52941185e-001, 1.57843143e-001, 9.85294104e-001,
          8.20588231e-001, 2.98039228e-001, 4.07843143e-001,
          3.58823538e-001, 6.40196085e-001, 3.99019599e-001,
          7.98039198e-001, 3.55882347e-001, 2.93137252e-001,
          3.95098031e-001, 1.37254903e-002, 9.39215660e-001,
          9.97058809e-001, 7.07843125e-001, 7.50980377e-001,
          4.70588244e-002, 6.69607818e-001, 5.96078455e-001,
          4.70588244e-002, 5.01960814e-001, 4.05882359e-001,
          5.74509799e-001, 3.37254912e-001, 4.83333319e-001,
          9.74509776e-001, 3.36274505e-001, 1.20588236e-001,
          4.06862736e-001, 5.48039198e-001, 4.38235283e-001,
          7.20588207e-001, 3.38235289e-001, 6.49999976e-001,
          6.00980401e-001, 4.69607830e-001, 2.04901963e-001,
          8.42156887e-001, 2.80392170e-001, 7.84313772e-003,
          7.45098069e-002, 4.24509794e-001, 5.23529410e-001,
          9.99019623e-001, 7.34313726e-001, 6.12745106e-001,
          3.77450973e-001, 7.14705884e-001, 4.38235283e-001,
          1.46078438e-001, 3.79411757e-001, 5.26470602e-001,
          1.77450985e-001, 7.50980377e-001, 6.06862724e-001,
          4.90196086e-002, 8.80392134e-001, 7.69607842e-001,
          8.90196085e-001, 8.27450991e-001, 1.68627456e-001,
          6.68627441e-001, 9.68627453e-001, 5.87254882e-001,
          5.18627465e-001, 9.28431392e-001, 4.01960798e-002,
          6.70588255e-001, 4.93137240e-001, 8.01960766e-001,
          7.79411793e-001, 1.65686280e-001, 5.19607849e-002,
          6.40196085e-001, 7.91176498e-001, 2.71568626e-001,
          9.96078432e-001, 9.90196049e-001, 2.12745100e-001,
          1.75490201e-001, 4.90196079e-001, 4.69607830e-001,
          5.95098019e-001, 4.02941167e-001, 7.80392170e-001,
          9.01960790e-001, 9.37254906e-001, 6.40196085e-001,
          5.42156875e-001, 5.24509788e-001, 2.60784328e-001,
          6.15686297e-001, 3.66666675e-001, 5.14705896e-001,
          6.30392134e-001, 3.83333325e-001, 9.97058809e-001,
          5.57843149e-001, 3.22549015e-001, 2.84313738e-001,
          4.84313726e-001, 9.74509776e-001, 9.98039186e-001,
          1.08823530e-001, 2.68627465e-001, 1.64705887e-001,
          7.94117674e-002, 2.64705896e-001, 8.08823526e-001,
          9.90196049e-001, 7.95098066e-001, 5.55882335e-001,
          4.51960772e-001, 4.83333319e-001, 4.50980403e-002,
          1.20588236e-001, 5.80392182e-001, 6.88235283e-001,
          4.10784304e-001, 7.55882382e-001, 2.72549033e-001,
          7.84313772e-003, 6.25490189e-001, 7.77450979e-001,
          6.00000024e-001, 3.84313732e-001, 5.28431356e-001,
          6.56862736e-001, 2.40196079e-001, 7.31372535e-001,
          7.65686274e-001, 6.29411757e-001, 5.48039198e-001,
          9.40196097e-001, 7.37254918e-001, 2.32352942e-001,
          9.99019623e-001, 1.33333340e-001, 4.31372553e-001,
          7.63725519e-001, 9.94117618e-001, 1.01960786e-001,
          1.51960790e-001, 3.36274505e-001, 4.88235295e-001,
          5.88235296e-002, 9.48039234e-001, 6.03921592e-001,
          9.21568647e-002, 2.08823532e-001, 7.75490224e-001,
          3.19607854e-001, 6.13725483e-001, 9.27450955e-001,
          2.76470602e-001, 4.45098042e-001, 6.15686297e-001,
          7.80392170e-001, 9.97058809e-001, 5.01960814e-001,
          6.51960790e-001, 1.94117650e-001, 4.56862748e-001,
          7.38235295e-001, 5.88235319e-001, 3.74509811e-001,
          2.95098037e-001, 6.27451017e-002, 2.34313726e-001,
          5.15686274e-001, 2.00000003e-001, 6.65686250e-001,
          4.72549021e-001, 5.43137252e-001, 9.95098054e-001,
          4.25490201e-001, 2.27450982e-001, 2.75490195e-001,
          9.30392146e-001, 4.82352942e-001, 1.52941182e-001,
          2.39215687e-001, 8.74509811e-001, 5.75490177e-001,
          6.38235271e-001, 6.24509811e-001, 3.44117641e-001,
          4.63725477e-001, 1.33333340e-001, 3.89215678e-001,
          4.60784324e-002, 4.64705884e-001, 9.18627441e-001,
          4.30392146e-001, 5.99019587e-001, 4.87254888e-001,
          8.40196073e-001, 4.60784324e-002, 7.21568644e-001,
          1.50000006e-001, 4.25490201e-001, 9.01960805e-002,
          5.32352924e-001, 7.14705884e-001, 9.67647076e-001,
          9.96078432e-001, 6.18627429e-001, 3.07843149e-001,
          8.89215708e-001, 6.63725495e-001, 2.61764705e-001,
          7.90196061e-001, 8.82352963e-002, 4.14705873e-001,
          8.26470613e-001, 6.72549009e-001, 5.66666663e-001,
          9.90196094e-002, 4.19607848e-001, 0., 9.96078432e-001,
          5.54901958e-001, 7.53921568e-001, 9.97058809e-001,
          9.84313726e-001, 5.23529410e-001, 5.52941203e-001,
          1.59803927e-001, 9.91176486e-001, 3.02941173e-001,
          5.90196073e-001, 7.52941191e-001, 8.21568608e-001,
          8.34313750e-001, 9.01960790e-001, 7.84313772e-003,
          3.92156869e-001, 9.33333337e-001, 4.15686280e-001,
          5.19607849e-002, 9.77450967e-001, 1.46078438e-001,
          1.68627456e-001, 7.60784328e-001, 5.00980377e-001,
          5.56862772e-001, 3.65686268e-001, 5.89215696e-001,
          5.76470613e-001, 7.01960802e-001, 2.31372550e-001 ]
      - [ 7.70588219e-001, 6.78431392e-001, 1.45098045e-001,
          8.27450991e-001, 2.20588237e-001, 7.84313772e-003,
          5.40196061e-001, 3.52941193e-002, 2.57843137e-001,
          4.90196079e-001, 4.37254906e-001, 9.77450967e-001,
          1.38235301e-001, 6.19607866e-001, 5.90196073e-001,
          7.10784316e-001, 3.80392164e-001, 7.56862760e-001,
          3.76470596e-001, 4.94117647e-001, 2.40196079e-001,
          5.44117630e-001, 3.92156886e-003, 8.31372559e-001,
          5.10784328e-001, 8.69607866e-001, 1.37254903e-002,
          1.89215690e-001, 2.10784316e-001, 2.22549021e-001,
          1.42156869e-001, 2.04901963e-001, 9.85294104e-001,
          8.61764729e-001, 3.48039210e-001, 1.64705887e-001,
          7.84313772e-003, 8.79411757e-001, 7.91176498e-001,
          5.80392182e-001, 5.36274493e-001, 3.99019599e-001,
          6.80392146e-001, 1.94117650e-001, 8.51960778e-001,
          7.00980365e-001, 6.03921592e-001, 2.60784328e-001,
          4.22549009e-001, 3.08823526e-001, 4.08823520e-001,
          6.21568620e-001, 5.60784340e-001, 2.82352954e-001,
          2.96078444e-001, 4.38235283e-001, 5.44117630e-001,
          3.63725483e-001, 4.57843125e-001, 3.67647052e-001,
          5.86274505e-001, 1.79411769e-001, 5.27450979e-001,
          8.02941203e-001, 3.00980389e-001, 7.54901990e-002,
          9.27450955e-001, 3.29411775e-001, 9.99019623e-001,
          8.33333313e-001, 6.08823538e-001, 4.35294122e-001,
          2.28431374e-001, 9.96078432e-001, 3.99019599e-001,
          4.26470578e-001, 5.87254882e-001, 2.21568629e-001,
          8.82352948e-001, 7.34313726e-001, 7.79411793e-001,
          5.59803903e-001, 5.22549033e-001, 1.64705887e-001,
          3.71568620e-001, 6.07843138e-002, 5.87254882e-001,
          9.20588255e-001, 5.53921580e-001, 2.59803921e-001,
          3.19607854e-001, 9.78431344e-001, 4.49999988e-001,
          7.90196061e-001, 6.97058797e-001, 5.15686274e-001,
          4.56862748e-001, 1.80392161e-001, 1.36274517e-001,
          9.85294104e-001, 2.78431386e-001, 1.50000006e-001,
          7.52941191e-001, 7.84313772e-003, 7.25490227e-002,
          1.94117650e-001, 5.24509788e-001, 7.15686306e-002,
          4.28431362e-001, 2.90196091e-001, 4.61764693e-001,
          9.66666639e-001, 6.48039222e-001, 5.57843149e-001,
          8.03921580e-001, 5.02941191e-001, 3.96078438e-001,
          1.37254903e-002, 3.03921580e-001, 9.31372523e-001,
          9.87254918e-001, 1.35294124e-001, 1.91176474e-001,
          1.87254906e-001, 1.84313729e-001, 9.98039186e-001,
          9.41176474e-001, 7.47058809e-001, 5.27450979e-001,
          7.74509788e-001, 8.41176450e-001, 5.42156875e-001,
          7.91176498e-001, 4.43137258e-001, 1.43137261e-001,
          1.14705883e-001, 5.26470602e-001, 5.44117630e-001,
          7.24509776e-001, 2.87254900e-001, 6.35294139e-001,
          7.11764693e-001, 7.35294104e-001, 4.14705873e-001,
          9.62745070e-001, 3.59803915e-001, 4.94117647e-001,
          5.53921580e-001, 3.07843149e-001, 7.53921568e-001,
          3.63725483e-001, 8.72548997e-001, 9.37254906e-001,
          8.99019599e-001, 8.43137279e-002, 7.04901934e-001,
          9.01960790e-001, 3.20588231e-001, 8.73529434e-001,
          5.32352924e-001, 8.59803915e-001, 8.21568608e-001,
          8.85294139e-001, 2.80392170e-001, 6.06862724e-001,
          9.94117618e-001, 3.39215696e-001, 2.73529410e-001,
          4.26470578e-001, 4.21568632e-001, 2.45098040e-001,
          4.35294122e-001, 2.49019608e-001, 5.18627465e-001,
          8.12745094e-001, 1., 1.29411772e-001, 9.99019623e-001,
          8.05882335e-001, 5.65686285e-001, 7.59803951e-001,
          6.66666687e-001, 5.83333313e-001, 1.29411772e-001,
          2.59803921e-001, 3.58823538e-001, 2.54901975e-001,
          3.66666675e-001, 8.62745121e-002, 6.56862736e-001,
          2.34313726e-001, 8.46078455e-001, 5.99019587e-001,
          2.53921568e-001, 6.15686297e-001, 6.99019611e-001,
          2.22549021e-001, 4.15686280e-001, 5.36274493e-001,
          4.32352930e-001, 6.79411769e-001, 1.92156866e-001,
          5.80392182e-001, 2.34313726e-001, 6.74509823e-001,
          1.05882354e-001, 3.94117653e-001, 4.94117647e-001,
          4.52941179e-001, 4.50980403e-002, 3.17647070e-001,
          2.28431374e-001, 4.56862748e-001, 1.30392164e-001,
          9.80392192e-003, 8.17647040e-001, 2.65686274e-001,
          7.84313738e-001, 4.70588237e-001, 5.49019635e-001,
          8.33333313e-001, 9.11764726e-002, 2.98039228e-001,
          6.88235283e-001, 6.77450955e-001, 5.05882382e-001,
          8.56862724e-001, 1.49019614e-001, 2.32352942e-001,
          2.50000000e-001, 3.76470596e-001, 2.36274511e-001,
          2.24509805e-001, 9.97058809e-001, 5.14705896e-001,
          9.68627453e-001, 4.52941179e-001, 3.68627459e-001,
          7.07843125e-001, 5.78431368e-001, 4.23529416e-001,
          3.52941185e-001, 1.84313729e-001, 7.14705884e-001,
          9.97058809e-001, 6.06862724e-001, 1.93137258e-001,
          5.32352924e-001, 6.28431380e-001, 6.01960778e-001,
          6.66666687e-001, 3.46078426e-001, 9.99019623e-001,
          3.55882347e-001, 1.32352948e-001, 9.34313715e-001 ]
      - [ 2.83333331e-001, 7.14705884e-001, 1.43137261e-001,
          6.07843161e-001, 8.78431380e-001, 1.50000006e-001,
          8.00980389e-001, 8.21568608e-001, 7.47058809e-001,
          7.49019623e-001, 3.33333343e-001, 6.47058845e-001,
          4.87254888e-001, 4.86274511e-001, 9.97058809e-001,
          9.29411769e-001, 6.27451003e-001, 3.26470584e-001,
          6.81372523e-001, 5.96078455e-001, 1.28431380e-001,
          6.15686297e-001, 9.14705873e-001, 4.23529416e-001,
          2.11764708e-001, 4.10784304e-001, 6.04901969e-001,
          4.82352942e-001, 1.73529416e-001, 2.67647058e-001,
          7.89215684e-001, 8.09803903e-001, 6.41176462e-001,
          3.33333343e-001, 3.83333325e-001, 8.79411757e-001,
          3.50980401e-001, 9.43137228e-001, 7.86274493e-001,
          3.35294127e-001, 9.70588207e-001, 9.67647076e-001,
          5.46078444e-001, 2.44117647e-001, 1.15686275e-001,
          6.00000024e-001, 4.76470590e-001, 9.69607830e-001,
          9.80392192e-003, 9.97058809e-001, 7.67647088e-001,
          3.44117641e-001, 1.54901966e-001, 7.41176486e-001,
          3.03921580e-001, 2.88235307e-001, 7.84313753e-002,
          8.36274505e-001, 5.86274505e-001, 3.94117653e-001,
          5.86274505e-001, 9.97058809e-001, 6.55882359e-001,
          8.79411757e-001, 3.31372559e-001, 6.23529434e-001,
          1.55882359e-001, 8.08823526e-001, 1.54901966e-001,
          5.60784340e-001, 4.75490183e-001, 7.05882385e-002,
          5.60784340e-001, 1.97058827e-001, 9.74509776e-001,
          6.06862724e-001, 9.92156863e-001, 3.83333325e-001,
          2.71568626e-001, 4.41176482e-002, 0., 9.97058809e-001,
          9.97058809e-001, 7.47058809e-001, 2.68627465e-001,
          5.68627477e-001, 4.04901952e-001, 5.90196073e-001,
          1.02941178e-001, 9.99019623e-001, 1.33333340e-001,
          9.95098054e-001, 3.72549035e-002, 5.77450991e-001,
          5.55882335e-001, 4.04901952e-001, 4.41176474e-001,
          2.51960784e-001, 6.85294092e-001, 4.78431374e-001,
          8.66666675e-001, 4.75490183e-001, 3.56862754e-001,
          6.99019611e-001, 5.62745094e-001, 6.68627441e-001,
          7.53921568e-001, 5.13725519e-001, 7.83333361e-001,
          7.15686262e-001, 9.78431344e-001, 1.67647064e-001,
          5.29411770e-002, 7.63725519e-001, 5.55882335e-001,
          6.62745118e-001, 9.84313726e-001, 3.16666663e-001,
          9.96078432e-001, 3.66666675e-001, 3.01960796e-001,
          3.29411775e-001, 2.72549033e-001, 1.72549024e-001,
          3.61764699e-001, 4.24509794e-001, 6.66666687e-001,
          6.16666675e-001, 4.36274499e-001, 2.48039216e-001,
          6.69607818e-001, 2.91176468e-001, 1.28431380e-001,
          2.45098043e-002, 9.50980365e-001, 9.71568644e-001,
          7.34313726e-001, 2.28431374e-001, 8.99999976e-001,
          9.30392146e-001, 6.45098031e-001, 9.26470578e-001,
          9.98039186e-001, 9.98039186e-001, 5.94117641e-001,
          4.93137240e-001, 9.97058809e-001, 2.64705896e-001,
          4.19607848e-001, 6.06862724e-001, 5.04901946e-001,
          9.94117618e-001, 2.53921568e-001, 4.83333319e-001,
          9.92156863e-001, 2.15686277e-001, 8.57843161e-001,
          7.68627465e-001, 8.99999976e-001, 6.90196097e-001,
          8.86274517e-001, 1.20588236e-001, 4.52941179e-001,
          4.63725477e-001, 7.23529398e-001, 1.92156866e-001,
          5.19607842e-001, 9.80392158e-001, 2.43137255e-001,
          4.10784304e-001, 5.98039210e-001, 6.96078420e-001,
          9.94117618e-001, 6.99019611e-001, 9.95098054e-001,
          6.82352960e-001, 2.54901975e-001, 5.47058821e-001,
          4.04901952e-001, 5.09803951e-001, 2.13725492e-001,
          7.53921568e-001, 2.98039228e-001, 7.31372535e-001,
          1.47058824e-002, 5.15686274e-001, 8.85294139e-001,
          2.09803924e-001, 1.96078438e-002, 8.38235319e-001,
          6.96078420e-001, 3.33333351e-002, 2.28431374e-001,
          2.30392158e-001, 4.40196067e-001, 1.96078438e-002,
          7.50980377e-001, 3.57843131e-001, 6.35294139e-001,
          7.23529398e-001, 4.93137240e-001, 9.68627453e-001,
          1.95098042e-001, 4.03921574e-001, 7.05882370e-001,
          2.52941191e-001, 4.70588244e-002, 2.22549021e-001,
          4.25490201e-001, 4.16666657e-001, 9.03921545e-001,
          3.71568620e-001, 8.43137279e-002, 3.89215678e-001,
          5.43137252e-001, 8.50980401e-001, 3.08823526e-001,
          1.27450982e-002, 3.32352936e-001, 2.72549033e-001,
          9.78431344e-001, 5.39215684e-001, 3.11764717e-001,
          3.27450991e-001, 3.93137246e-001, 1.08823530e-001,
          5.98039210e-001, 4.88235295e-001, 2.35294122e-002,
          9.60784331e-002, 2.56862760e-001, 6.62745118e-001,
          3.72549027e-001, 6.57843113e-001, 3.52941193e-002,
          4.49019611e-001, 1.48039222e-001, 7.78431356e-001,
          5.47058821e-001, 8.48039210e-001, 7.44117618e-001,
          1.47058824e-002, 1.82352945e-001, 7.85294116e-001,
          6.08823538e-001, 1.13725491e-001, 5.76470613e-001,
          9.90196049e-001, 1.12745099e-001, 3.98039222e-001,
          9.18627441e-001, 2.26470590e-001, 5.85294127e-001,
          5.00980377e-001, 6.20588243e-001, 9.33333337e-001 ]
      - [ 9.45098042e-001, 4.44117635e-001, 6.68627441e-001,
          2.71568626e-001, 1.17647061e-002, 2.38235295e-001,
          9.80392215e-004, 2.49019608e-001, 8.49019587e-001,
          3.66666675e-001, 7.72549033e-001, 5.30392170e-001,
          9.38235283e-001, 8.39215696e-001, 7.23529398e-001,
          4.60784316e-001, 8.98039222e-001, 2.33333334e-001,
          8.93137276e-001, 2.96078444e-001, 1.21568628e-001,
          4.11764711e-001, 5.56862772e-001, 5.97058833e-001,
          5.46078444e-001, 8.29411745e-001, 9.35294092e-001,
          4.48039204e-001, 1.58823535e-001, 1.02941178e-001,
          1.01960786e-001, 2.68627465e-001, 2.64705896e-001,
          8.70588243e-001, 9.98039186e-001, 4.33333337e-001,
          1.62745103e-001, 2.84313727e-002, 7.73529410e-001,
          7.35294148e-002, 1.45098045e-001, 5.26470602e-001,
          1.99019611e-001, 6.34313703e-001, 6.37254894e-001,
          5.02941191e-001, 4.19607848e-001, 3.67647052e-001,
          8.55882347e-001, 7.15686306e-002, 4.26470578e-001,
          7.09803939e-001, 6.49999976e-001, 4.88235295e-001,
          4.07843143e-001, 4.17647064e-001, 4.32352930e-001,
          4.70588237e-001, 3.91176462e-001, 9.08823550e-001,
          4.17647064e-001, 6.91176474e-001, 1.77450985e-001,
          4.17647064e-001, 3.46078426e-001, 6.40196085e-001,
          5.43137252e-001, 8.17647040e-001, 9.91176486e-001,
          2.60784328e-001, 2.32352942e-001, 9.97058809e-001,
          9.48039234e-001, 5.77450991e-001, 4.80392158e-001,
          9.98039186e-001, 8.71568620e-001, 6.55882359e-001,
          7.98039198e-001, 3.92156869e-001, 4.27450985e-001,
          1.80392161e-001, 3.00980389e-001, 8.38235319e-001,
          6.86274543e-002, 5.51960766e-001, 4.50980395e-001,
          9.99019623e-001, 2.10784316e-001, 6.31372571e-001,
          4.36274499e-001, 7.45098069e-002, 2.45098040e-001,
          8.46078455e-001, 6.60784304e-001, 1.87254906e-001,
          7.25490212e-001, 8.11764717e-001, 1.01960786e-001,
          5.99019587e-001, 3.19607854e-001, 7.78431356e-001,
          6.70588255e-001, 4.42156851e-001, 2.07843140e-001,
          2.69607842e-001, 5.16666651e-001, 2.30392158e-001,
          5.87254882e-001, 3.22549015e-001, 1.05882354e-001,
          5.91176450e-001, 3.74509811e-001, 9.99019623e-001,
          4.98039216e-001, 1.72549024e-001, 9.07843113e-001,
          4.93137240e-001, 5.49019635e-001, 7.13725507e-001,
          2.54901964e-002, 2.35294122e-002, 5.64705908e-001,
          2.73529410e-001, 6.78431392e-001, 7.85294116e-001,
          3.93137246e-001, 7.59803951e-001, 1.92156866e-001,
          7.07843125e-001, 3.56862754e-001, 5.40196061e-001,
          5.71568608e-001, 9.09803927e-001, 7.13725507e-001,
          4.00980383e-001, 1.38235301e-001, 9.52941179e-001,
          6.57843113e-001, 5.41176498e-001, 7.25490227e-002,
          2.86274523e-001, 7.26470590e-001, 4.03921574e-001,
          4.21568640e-002, 5.66666663e-001, 3.54901969e-001,
          3.79411757e-001, 9.95098054e-001, 9.91176486e-001,
          1.47058830e-001, 7.64705896e-001, 3.21568638e-001,
          6.25490189e-001, 1.05882354e-001, 6.46078408e-001,
          9.90196049e-001, 3.33333343e-001, 4.52941179e-001,
          3.60784322e-001, 3.07843149e-001, 4.65686262e-001,
          8.57843161e-001, 9.39215660e-001, 6.09803915e-001,
          5.80392182e-001, 8.29411745e-001, 7.25490212e-001,
          1.34313732e-001, 2.34313726e-001, 2.64705896e-001,
          8.20588231e-001, 4.64705884e-001, 5.02941191e-001,
          5.94117641e-001, 9.47058797e-001, 4.85294104e-001,
          3.35294127e-001, 2.67647058e-001, 3.31372559e-001,
          8.12745094e-001, 8.42156887e-001, 6.99019611e-001,
          7.30392158e-001, 8.00980389e-001, 9.23529387e-001,
          7.01960802e-001, 3.89215678e-001, 4.22549009e-001,
          2.87254900e-001, 8.13725471e-001, 9.98039186e-001,
          7.85294116e-001, 2.65686274e-001, 7.45098069e-002,
          9.97058809e-001, 4.85294104e-001, 7.85294116e-001,
          2.12745100e-001, 4.36274499e-001, 9.96078432e-001,
          9.79411781e-001, 7.32352912e-001, 4.67647046e-001,
          8.27450991e-001, 5.60784340e-001, 2.36274511e-001,
          9.99019623e-001, 4.51960772e-001, 8.28431368e-001,
          8.38235319e-001, 8.04901958e-001, 9.71568644e-001,
          4.57843125e-001, 9.28431392e-001, 5.07843137e-001,
          6.75490201e-001, 1.09803922e-001, 4.98039216e-001,
          1.80392161e-001, 2.30392158e-001, 4.18627441e-001,
          2.83333331e-001, 5.68627477e-001, 7.45098069e-002,
          2.50980407e-001, 6.77450955e-001, 6.47058845e-001,
          7.28431344e-001, 5.73529422e-001, 4.61764693e-001,
          6.30392134e-001, 9.98039186e-001, 3.60784322e-001,
          8.71568620e-001, 3.70588243e-001, 5.02941191e-001,
          1.50000006e-001, 4.49019611e-001, 3.97058815e-001,
          6.85294092e-001, 1.13725491e-001, 6.15686297e-001,
          9.95098054e-001, 6.58823550e-001, 7.68627465e-001,
          5.82352936e-001, 6.01960778e-001, 9.62745070e-001,
          3.47058833e-001, 9.34313715e-001, 8.00000012e-001,
          4.24509794e-001, 9.51960802e-001, 4.23529416e-001,
          2.11764708e-001 ]
      - [ 9.93137240e-001, 9.03921545e-001, 5.83333313e-001,
          1.11764707e-001, 3.82352948e-001, 5.08823514e-001,
          9.99019623e-001, 8.21568608e-001, 8.35294127e-001,
          3.83333325e-001, 4.74509805e-001, 1.76470593e-001,
          5.12745082e-001, 4.19607848e-001, 4.00980383e-001,
          2.31372550e-001, 9.98039186e-001, 7.27450967e-001,
          3.92156886e-003, 1.29411772e-001, 3.18627447e-001,
          2.57843137e-001, 2.14705884e-001, 3.92156869e-001,
          7.55882382e-001, 4.60784316e-001, 3.11764717e-001,
          3.18627447e-001, 3.31372559e-001, 5.15686274e-001,
          4.63725477e-001, 2.77450979e-001, 6.69607818e-001,
          1.50000006e-001, 1.39215693e-001, 7.31372535e-001,
          5.91176450e-001, 5.55882335e-001, 3.07843149e-001,
          8.34313750e-001, 6.41176462e-001, 4.10784304e-001,
          5.88235319e-001, 2.66666681e-001, 5.17647088e-001,
          2.50000000e-001, 6.95098042e-001, 5.50980389e-001,
          4.18627441e-001, 3.47058833e-001, 7.76470602e-001,
          6.67647064e-001, 7.31372535e-001, 2.95098037e-001,
          6.98039234e-001, 4.97058809e-001, 5.20588219e-001,
          3.19607854e-001, 5.32352924e-001, 9.28431392e-001,
          9.83333349e-001, 6.70588255e-001, 8.98039222e-001,
          2.25490198e-001, 4.96078432e-001, 5.89215696e-001,
          3.04901958e-001, 5.98039210e-001, 1.27450988e-001,
          1.54901966e-001, 1.60784319e-001, 2.70588249e-001,
          5.02941191e-001, 4.00000006e-001, 9.01960790e-001,
          6.78431392e-001, 4.26470578e-001, 6.47058845e-001,
          4.73529398e-001, 6.31372571e-001, 8.79411757e-001,
          2.23529413e-001, 4.59803909e-001, 7.18627453e-001,
          3.69607836e-001, 2.61764705e-001, 8.98039222e-001,
          9.12745118e-001, 6.03921592e-001, 5.30392170e-001,
          7.66666651e-001, 6.80392146e-001, 3.82352948e-001,
          1.45098045e-001, 7.45098054e-001, 6.05882347e-001,
          3.25490206e-001, 5.73529422e-001, 9.04901981e-001,
          3.13725501e-001, 9.92156863e-001, 4.31372553e-001,
          8.14705908e-001, 6.61764681e-001, 3.95098031e-001,
          1.67647064e-001, 3.49019617e-001, 4.70588244e-002,
          5.61764717e-001, 7.43137240e-001, 6.86274515e-003,
          8.40196073e-001, 1.29411772e-001, 2.09803924e-001,
          7.19607830e-001, 6.50980413e-001, 6.35294139e-001,
          4.72549021e-001, 3.23529422e-001, 9.99019623e-001,
          9.92156863e-001, 7.83333361e-001, 1.00980394e-001,
          1.21568628e-001, 3.90196085e-001, 7.28431344e-001,
          9.71568644e-001, 9.92156863e-001, 8.52941155e-001,
          2.69607842e-001, 4.69607830e-001, 5.24509788e-001,
          2.37254903e-001, 3.13725501e-001, 4.86274511e-001,
          4.92156863e-001, 6.71568632e-001, 7.84313772e-003,
          2.47058824e-001, 9.13725495e-001, 4.03921574e-001,
          5.41176498e-001, 5.56862772e-001, 5.86274505e-001,
          5.46078444e-001, 4.50980403e-002, 6.05882347e-001,
          3.17647070e-001, 4.91176456e-001, 6.00980401e-001,
          3.72549035e-002, 8.07843149e-001, 1.62745103e-001,
          2.74509817e-001, 4.49019611e-001, 4.29411769e-001, 0.,
          9.97058809e-001, 4.85294104e-001, 9.96078432e-001,
          9.10784304e-001, 3.76470596e-001, 4.74509805e-001,
          2.78431386e-001, 2.91176468e-001, 1.40196085e-001,
          4.23529416e-001, 9.95098054e-001, 9.97058809e-001,
          7.50980377e-001, 6.27451017e-002, 1.96078438e-002,
          7.22549021e-001, 4.95098025e-001, 2.94117648e-002,
          6.69607818e-001, 3.96078438e-001, 4.75490183e-001,
          2.16666669e-001, 8.30392182e-001, 1.41176477e-001,
          5.86274505e-001, 1.50980398e-001, 1.71568632e-001,
          8.88235271e-001, 2.24509805e-001, 3.23529422e-001,
          5.41176498e-001, 1.11764707e-001, 8.20588231e-001,
          5.76470613e-001, 9.22549009e-001, 7.26470590e-001,
          3.57843131e-001, 6.57843113e-001, 7.21568644e-001,
          2.70588249e-001, 5.21568656e-001, 8.40196073e-001,
          9.96078432e-001, 5.35294116e-001, 4.63725477e-001,
          9.22549009e-001, 4.88235295e-001, 2.00000003e-001,
          7.73529410e-001, 7.65686274e-001, 2.53921568e-001,
          7.67647088e-001, 6.47058845e-001, 8.00000012e-001,
          2.75490195e-001, 4.49999988e-001, 2.19607845e-001,
          5.75490177e-001, 9.33333337e-001, 1.65686280e-001,
          4.50980395e-001, 8.44117641e-001, 2.84313738e-001,
          1.76470593e-001, 4.19607848e-001, 6.66666687e-001,
          4.16666657e-001, 6.78431392e-001, 5.26470602e-001,
          4.15686280e-001, 5.63725471e-001, 2.24509805e-001,
          3.49019617e-001, 4.03921574e-001, 9.99019623e-001,
          7.18627453e-001, 8.45098019e-001, 2.99019605e-001,
          3.67647052e-001, 6.01960778e-001, 6.16666675e-001,
          1.89215690e-001, 3.46078426e-001, 9.97058809e-001,
          8.17647040e-001, 8.92156884e-002, 2.41176471e-001,
          4.88235295e-001, 1.59803927e-001, 7.76470602e-001,
          3.92156886e-003, 1.37254903e-002, 5.36274493e-001,
          8.52941200e-002, 1.88235298e-001, 4.84313726e-001,
          6.44117653e-001, 6.49999976e-001, 6.30392134e-001 ]
      - [ 5.58823526e-001, 8.27450991e-001, 6.16666675e-001,
          5.06862760e-001, 2.44117647e-001, 1., 5.21568656e-001,
          1.17647059e-001, 3.17647070e-001, 2.49019608e-001,
          2.88235307e-001, 7.44117618e-001, 4.48039204e-001,
          4.98039216e-001, 5.09803951e-001, 2.88235307e-001,
          4.91176456e-001, 5.16666651e-001, 1.43137261e-001,
          7.21568644e-001, 5.57843149e-001, 3.68627459e-001,
          3.48039210e-001, 6.63725495e-001, 8.35294127e-001,
          7.40196049e-001, 4.54901963e-001, 3.15686285e-001,
          4.66666669e-001, 4.48039204e-001, 5.26470602e-001,
          8.22549045e-001, 3.43137264e-001, 9.70588207e-001,
          4.20588225e-001, 1.37254909e-001, 5.10784328e-001,
          5.54901958e-001, 2.99019605e-001, 1.10784315e-001,
          3.01960796e-001, 6.00000024e-001, 4.81372535e-001,
          9.99019623e-001, 9.97058809e-001, 2.86274523e-001,
          6.41176462e-001, 3.51960778e-001, 7.54901990e-002,
          6.21568620e-001, 7.31372535e-001, 4.42156851e-001,
          4.25490201e-001, 6.86274529e-001, 6.97058797e-001,
          4.98039216e-001, 6.81372523e-001, 6.53921545e-001,
          3.13725509e-002, 3.92156869e-001, 2.44117647e-001,
          7.84313772e-003, 1.26470596e-001, 7.17647076e-001,
          1.59803927e-001, 7.25490212e-001, 4.43137258e-001,
          7.65686274e-001, 4.89215672e-001, 9.99019623e-001,
          4.83333319e-001, 4.89215672e-001, 9.94117618e-001,
          8.93137276e-001, 4.96078432e-001, 1.78431377e-001,
          8.80392134e-001, 9.84313726e-001, 5.00000007e-002,
          3.52941185e-001, 6.77450955e-001, 5.38235307e-001,
          8.95098031e-001, 6.49019599e-001, 2.30392158e-001,
          1.76470596e-002, 5.15686274e-001, 1.57843143e-001,
          9.70588252e-002, 1.20588236e-001, 6.62745118e-001,
          3.79411757e-001, 9.98039186e-001, 3.68627459e-001,
          9.84313726e-001, 7.24509776e-001, 6.13725483e-001,
          2.74509806e-002, 4.47058827e-001, 1.98039219e-001,
          9.93137240e-001, 6.27451017e-002, 9.85294104e-001,
          8.26470613e-001, 3.79411757e-001, 8.60784292e-001,
          4.07843143e-001, 5.31372547e-001, 6.98039234e-001,
          3.00000012e-001, 6.84313715e-001, 8.44117641e-001,
          4.21568632e-001, 9.11764681e-001, 2.44117647e-001,
          4.03921574e-001, 5.36274493e-001, 9.43137228e-001,
          5.00000000e-001, 8.60784292e-001, 2.75490195e-001,
          9.86274481e-001, 5.25490224e-001, 8.65686297e-001,
          9.73529398e-001, 2.00980395e-001, 5.96078455e-001,
          6.61764681e-001, 4.44117635e-001, 6.93137228e-001,
          3.92156869e-001, 7.71568656e-001, 2.99019605e-001,
          2.52941191e-001, 5.61764717e-001, 4.34313715e-001,
          1.49019614e-001, 1.44117653e-001, 8.87254894e-001,
          6.61764681e-001, 3.53921562e-001, 4.10784304e-001,
          6.74509823e-001, 9.92156863e-001, 3.39215696e-001,
          2.56862760e-001, 4.80392158e-001, 7.72549033e-001,
          3.96078438e-001, 5.98039217e-002, 4.87254888e-001,
          3.39215696e-001, 4.20588225e-001, 9.98039186e-001,
          4.31372553e-001, 7.94117674e-002, 1., 8.63725483e-001,
          8.00980389e-001, 3.61764699e-001, 8.25490177e-001,
          2.82352954e-001, 4.83333319e-001, 9.36274529e-001,
          1.43137261e-001, 6.03921592e-001, 7.69607842e-001,
          2.69607842e-001, 5.52941203e-001, 9.16666687e-001,
          6.07843161e-001, 3.94117653e-001, 2.21568629e-001,
          3.39215696e-001, 6.84313715e-001, 2.20588237e-001,
          4.11764719e-002, 1.26470596e-001, 4.76470590e-001,
          7.05882370e-001, 6.78431392e-001, 5.52941203e-001,
          3.93137246e-001, 4.91176456e-001, 3.32352936e-001,
          2.38235295e-001, 2.48039216e-001, 9.37254906e-001,
          9.96078432e-001, 7.54901946e-001, 9.85294104e-001,
          3.01960796e-001, 5.02941191e-001, 5.41176498e-001,
          5.23529410e-001, 3.71568620e-001, 6.76470578e-001,
          3.22549015e-001, 3.78431380e-001, 8.74509811e-001,
          4.94117647e-001, 8.49019587e-001, 9.94117618e-001,
          2.76470602e-001, 3.92156886e-003, 9.27450955e-001,
          8.49019587e-001, 4.26470578e-001, 6.16666675e-001,
          4.98039216e-001, 1.50000006e-001, 5.11764705e-001,
          8.26470613e-001, 3.90196085e-001, 3.54901969e-001,
          4.12745088e-001, 3.20588231e-001, 2.76470602e-001,
          4.89215672e-001, 2.85294116e-001, 3.73529404e-001,
          5.91176450e-001, 4.68627453e-001, 7.83333361e-001,
          2.88235307e-001, 4.60784316e-001, 1.84313729e-001,
          4.00000006e-001, 9.84313726e-001, 5.60784340e-001,
          4.00000006e-001, 6.31372571e-001, 4.43137258e-001,
          2.43137255e-001, 3.34313720e-001, 4.36274499e-001,
          3.96078438e-001, 5.03921568e-001, 6.77450955e-001,
          2.94117659e-001, 3.52941185e-001, 9.97058809e-001,
          5.79411745e-001, 7.59803951e-001, 4.15686280e-001,
          5.34313738e-001, 8.38235319e-001, 5.11764705e-001,
          6.36274517e-001, 7.25490227e-002, 3.12745094e-001,
          7.54901946e-001, 2.63725489e-001, 8.41176450e-001,
          4.21568632e-001, 7.06862748e-001 ]
      - [ 3.06862742e-001, 9.81372535e-001, 1.26470596e-001,
          5.39215684e-001, 9.77450967e-001, 5.53921580e-001,
          6.00980401e-001, 9.72549021e-001, 9.85294104e-001,
          7.34313726e-001, 7.94117674e-002, 7.20588207e-001,
          6.28431380e-001, 7.74509788e-001, 2.99019605e-001,
          7.91176498e-001, 3.04901958e-001, 7.57843137e-001,
          5.69607854e-001, 9.03921545e-001, 7.20588207e-001,
          2.53921568e-001, 4.96078432e-001, 3.59803915e-001,
          8.96078408e-001, 1.90196082e-001, 9.95098054e-001,
          2.27450982e-001, 2.74509817e-001, 7.20588207e-001,
          6.13725483e-001, 8.11764717e-001, 2.31372550e-001,
          6.76470578e-001, 8.39215696e-001, 5.43137252e-001,
          9.98039186e-001, 9.68627453e-001, 8.56862724e-001,
          1.12745099e-001, 9.21568632e-001, 4.98039216e-001,
          9.21568647e-002, 2.75490195e-001, 9.87254918e-001,
          6.56862780e-002, 8.92156884e-002, 4.58823532e-001,
          3.83333325e-001, 1.39215693e-001, 8.23529437e-002,
          1.12745099e-001, 5.17647088e-001, 6.95098042e-001,
          3.00980389e-001, 5.02941191e-001, 2.99019605e-001,
          4.96078432e-001, 2.35294122e-002, 8.02941203e-001,
          3.61764699e-001, 4.55882341e-001, 2.33333334e-001,
          1.27450988e-001, 5.72549045e-001, 7.99019635e-001,
          6.42156839e-001, 9.40196097e-001, 1.68627456e-001,
          9.15686250e-001, 8.08823526e-001, 7.97058821e-001,
          9.96078432e-001, 5.88235319e-001, 4.76470590e-001,
          7.37254918e-001, 9.96078432e-001, 6.33333325e-001,
          7.16666639e-001, 3.68627459e-001, 3.97058815e-001,
          4.59803909e-001, 9.97058809e-001, 5.21568656e-001,
          7.57843137e-001, 2.73529410e-001, 4.79411751e-001,
          9.93137240e-001, 4.98039216e-001, 2.24509805e-001,
          8.02941203e-001, 8.96078408e-001, 3.55882347e-001,
          9.98039186e-001, 2.08823532e-001, 4.96078432e-001,
          4.72549021e-001, 3.21568638e-001, 8.33333358e-002,
          3.11764717e-001, 5.19607842e-001, 1.84313729e-001,
          3.92156869e-001, 2.85294116e-001, 6.08823538e-001,
          2.33333334e-001, 7.24509776e-001, 6.25490189e-001,
          2.02941179e-001, 3.43137264e-001, 2.63725489e-001,
          2.72549033e-001, 7.12745070e-001, 3.92156869e-001,
          4.59803909e-001, 3.36274505e-001, 6.78431392e-001,
          2.83333331e-001, 2.64705885e-002, 9.76470590e-001,
          7.50000000e-001, 9.77450967e-001, 1., 2.27450982e-001,
          3.19607854e-001, 9.79411781e-001, 6.03921592e-001,
          2.71568626e-001, 9.65686262e-001, 4.75490183e-001,
          1.99019611e-001, 7.41176486e-001, 4.49019611e-001,
          6.25490189e-001, 8.31372559e-001, 9.99019623e-001,
          5.45098066e-001, 3.21568638e-001, 2.48039216e-001,
          4.79411751e-001, 4.07843143e-001, 9.97058809e-001,
          9.94117618e-001, 7.25490212e-001, 8.22549045e-001,
          3.87254894e-001, 1.97058827e-001, 7.71568656e-001,
          5.04901946e-001, 6.04901969e-001, 8.90196085e-001,
          2.28431374e-001, 1.25490203e-001, 8.69607866e-001,
          3.64705890e-001, 2.94117659e-001, 7.45098054e-001,
          2.82352954e-001, 9.12745118e-001, 1.28431380e-001,
          9.95098054e-001, 7.26470590e-001, 6.40196085e-001,
          3.34313720e-001, 4.15686280e-001, 9.03921545e-001,
          8.76470566e-001, 2.59803921e-001, 1.42156869e-001,
          1.58823535e-001, 1.80392161e-001, 4.56862748e-001,
          9.85294104e-001, 4.21568632e-001, 3.49999994e-001,
          4.42156851e-001, 4.32352930e-001, 1.74509808e-001,
          3.94117653e-001, 3.60784322e-001, 9.96078432e-001,
          5.50000012e-001, 2.50980407e-001, 6.71568632e-001,
          7.77450979e-001, 5.79411745e-001, 1.92156866e-001,
          3.40196073e-001, 7.23529398e-001, 8.52941155e-001,
          9.76470590e-001, 8.74509811e-001, 1.43137261e-001,
          8.93137276e-001, 7.34313726e-001, 3.80392164e-001,
          6.24509811e-001, 5.56862772e-001, 6.29411757e-001,
          8.05882335e-001, 8.17647040e-001, 2.25490198e-001,
          6.96078420e-001, 3.34313720e-001, 2.67647058e-001,
          5.87254882e-001, 8.60784292e-001, 6.41176462e-001,
          2.08823532e-001, 3.54901969e-001, 9.98039186e-001,
          2.61764705e-001, 7.55882382e-001, 9.29411769e-001,
          1.00980394e-001, 7.76470602e-001, 6.90196097e-001,
          3.59803915e-001, 8.51960778e-001, 5.04901946e-001,
          4.51960772e-001, 2.82352954e-001, 7.21568644e-001,
          8.57843161e-001, 5.19607842e-001, 6.07843138e-002,
          4.93137240e-001, 1.57843143e-001, 2.10784316e-001,
          4.75490183e-001, 7.55882382e-001, 5.02941191e-001,
          6.44117653e-001, 9.05882359e-001, 4.48039204e-001,
          3.13725501e-001, 3.75490189e-001, 7.01960802e-001,
          1.72549024e-001, 9.82352912e-001, 4.79411751e-001,
          2.63725489e-001, 4.91176456e-001, 4.05882359e-001,
          6.05882347e-001, 2.63725489e-001, 1.59803927e-001,
          8.29411745e-001, 8.92156884e-002, 5.81372559e-001,
          5.30392170e-001, 5.51960766e-001, 4.18627441e-001,
          3.62745106e-001, 8.89215708e-001, 2.50980407e-001 ]
      - [ 1.66666672e-001, 5.95098019e-001, 3.54901969e-001,
          7.96078444e-001, 5.01960814e-001, 7.78431356e-001,
          4.69607830e-001, 5.92156887e-001, 3.45098048e-001,
          6.80392146e-001, 1.09803922e-001, 3.03921580e-001,
          5.71568608e-001, 5.62745094e-001, 5.70588231e-001,
          3.20588231e-001, 6.34313703e-001, 2.46078432e-001,
          9.97058809e-001, 2.51960784e-001, 5.20588219e-001,
          1.42156869e-001, 3.63725483e-001, 8.88235271e-001,
          9.96078432e-001, 1.72549024e-001, 5.61764717e-001,
          7.32352912e-001, 5.84313750e-001, 7.47058809e-001,
          7.27450967e-001, 8.73529434e-001, 7.86274493e-001,
          5.58823526e-001, 5.78431368e-001, 9.08823550e-001,
          4.63725477e-001, 4.22549009e-001, 3.82352956e-002,
          8.43137279e-002, 5.30392170e-001, 8.46078455e-001,
          4.17647064e-001, 6.79411769e-001, 3.93137246e-001,
          7.53921568e-001, 8.55882347e-001, 9.22549009e-001,
          2.51960784e-001, 7.66666651e-001, 3.28431368e-001,
          9.96078432e-001, 2.99019605e-001, 8.15686285e-001,
          5.01960814e-001, 4.71568614e-001, 7.45098054e-001,
          9.23529387e-001, 6.36274517e-001, 5.67647040e-001,
          6.17647052e-001, 1.96078443e-003, 9.23529387e-001,
          6.37254938e-002, 4.71568614e-001, 3.01960796e-001,
          4.95098025e-001, 6.39215708e-001, 4.71568614e-001,
          9.83333349e-001, 9.25490201e-001, 5.69607854e-001,
          7.58823514e-001, 5.24509788e-001, 5.41176498e-001,
          1.34313732e-001, 5.72549045e-001, 8.11764717e-001,
          8.14705908e-001, 2.69607842e-001, 2.69607842e-001,
          9.15686250e-001, 6.98039234e-001, 8.04901958e-001,
          4.56862748e-001, 6.54901981e-001, 3.10784310e-001,
          7.37254918e-001, 4.09803927e-001, 6.97058797e-001,
          6.84313715e-001, 8.95098031e-001, 2.40196079e-001,
          9.97058809e-001, 7.20588207e-001, 5.20588219e-001,
          3.50980401e-001, 7.03921556e-001, 2.51960784e-001,
          2.60784328e-001, 2.91176468e-001, 7.88235307e-001,
          5.55882335e-001, 4.62745100e-001, 5.33333361e-001,
          3.10784310e-001, 2.95098037e-001, 7.08823502e-001,
          4.81372535e-001, 1.98039219e-001, 6.16666675e-001,
          9.77450967e-001, 8.11764717e-001, 1.50000006e-001,
          3.96078438e-001, 1.30392164e-001, 3.09803933e-001,
          7.17647076e-001, 2.68627465e-001, 9.96078432e-001,
          4.05882359e-001, 9.21568647e-002, 2.96078444e-001,
          6.86274543e-002, 9.52941179e-001, 6.00980401e-001,
          5.74509799e-001, 7.34313726e-001, 1.09803922e-001,
          7.18627453e-001, 5.66666663e-001, 2.53921568e-001,
          9.97058809e-001, 8.55882347e-001, 5.93137264e-001,
          3.08823526e-001, 5.08823514e-001, 4.08823520e-001,
          1.87254906e-001, 9.17647064e-001, 5.90196073e-001,
          5.77450991e-001, 2.73529410e-001, 5.79411745e-001,
          1.28431380e-001, 3.60784322e-001, 2.25490198e-001,
          7.84313753e-002, 0., 4.08823520e-001, 9.52941179e-001,
          5.35294116e-001, 1.85294122e-001, 4.89215672e-001,
          9.95098054e-001, 8.23529437e-002, 6.65686250e-001,
          9.80392192e-003, 3.45098048e-001, 1.91176474e-001,
          4.66666669e-001, 7.42156863e-001, 4.30392146e-001,
          3.40196073e-001, 4.75490183e-001, 9.08823550e-001,
          6.57843113e-001, 5.15686274e-001, 3.95098031e-001,
          7.11764693e-001, 5.58823526e-001, 3.90196085e-001,
          9.98039186e-001, 3.01960796e-001, 1., 4.99019593e-001,
          3.08823526e-001, 2.17647061e-001, 9.81372535e-001,
          2.54901975e-001, 1.76470593e-001, 4.01960790e-001,
          9.25490201e-001, 3.69607836e-001, 8.86274517e-001,
          1.61764711e-001, 3.82352948e-001, 7.18627453e-001,
          7.68627465e-001, 4.18627441e-001, 4.11764711e-001,
          1.08823530e-001, 1.38235301e-001, 3.84313732e-001,
          9.64705884e-001, 5.09803928e-002, 4.55882341e-001,
          8.29411745e-001, 7.44117618e-001, 7.55882382e-001,
          8.98039222e-001, 6.41176462e-001, 7.49019623e-001,
          2.42156863e-001, 2.39215687e-001, 8.89215708e-001,
          9.49999988e-001, 7.01960802e-001, 2.51960784e-001,
          7.35294148e-002, 4.69607830e-001, 7.90196061e-001,
          6.99999988e-001, 7.99019635e-001, 3.55882347e-001,
          7.03921556e-001, 8.30392182e-001, 9.13725495e-001,
          5.38235307e-001, 6.90196097e-001, 9.52941179e-001,
          7.69607842e-001, 9.78431344e-001, 9.88235295e-001,
          7.11764693e-001, 9.99019623e-001, 3.24509799e-001,
          2.08823532e-001, 6.66666687e-001, 3.24509799e-001,
          7.71568656e-001, 5.66666663e-001, 9.66666639e-001,
          7.64705911e-002, 6.94117665e-001, 2.59803921e-001,
          8.48039210e-001, 7.70588219e-001, 6.62745118e-001,
          5.12745082e-001, 3.66666675e-001, 9.96078432e-001,
          5.21568656e-001, 6.06862724e-001, 4.09803927e-001,
          2.14705884e-001, 7.64705911e-002, 8.26470613e-001,
          4.31372553e-001, 5.57843149e-001, 9.75490212e-001,
          2.94117648e-002, 8.91176462e-001, 1.36274517e-001,
          7.17647076e-001, 3.81372541e-001 ]
      - [ 1.52941182e-001, 4.09803927e-001, 4.15686280e-001,
          9.26470578e-001, 7.04901934e-001, 3.39215696e-001,
          5.86274505e-001, 3.74509811e-001, 4.75490183e-001,
          7.89215684e-001, 5.38235307e-001, 5.11764705e-001,
          8.79411757e-001, 7.23529398e-001, 9.98039186e-001,
          6.48039222e-001, 4.15686280e-001, 2.54901975e-001,
          1.03921570e-001, 9.94117618e-001, 4.00980383e-001,
          9.91176486e-001, 5.66666663e-001, 7.21568644e-001,
          4.39215690e-001, 2.15686280e-002, 3.52941185e-001,
          9.95098054e-001, 4.04901952e-001, 5.30392170e-001,
          2.26470590e-001, 3.34313720e-001, 4.40196067e-001,
          3.92156886e-003, 6.69607818e-001, 1.49019614e-001,
          4.42156851e-001, 8.83333325e-001, 7.30392158e-001,
          7.00980365e-001, 3.73529404e-001, 6.22548997e-001,
          2.47058824e-001, 6.86274543e-002, 3.67647052e-001,
          9.97058809e-001, 4.21568632e-001, 3.50980401e-001,
          7.30392158e-001, 7.59803951e-001, 8.04901958e-001,
          8.13725471e-001, 3.35294127e-001, 2.13725492e-001,
          9.60784316e-001, 8.21568608e-001, 7.70588219e-001,
          2.73529410e-001, 6.35294139e-001, 5.92156887e-001,
          5.49019612e-002, 4.77450967e-001, 3.41176480e-001,
          2.62745112e-001, 4.70588237e-001, 9.97058809e-001,
          8.50980401e-001, 9.97058809e-001, 3.94117653e-001,
          6.31372571e-001, 9.85294104e-001, 3.06862742e-001,
          7.11764693e-001, 6.07843161e-001, 3.97058815e-001,
          9.97058809e-001, 7.82352924e-001, 2.82352954e-001,
          5.08823514e-001, 6.62745118e-001, 2.28431374e-001,
          9.01960790e-001, 8.02941203e-001, 6.48039222e-001,
          7.79411793e-001, 5.04901946e-001, 1.11764707e-001,
          4.60784324e-002, 7.19607830e-001, 2.94117648e-002,
          3.50980401e-001, 2.88235307e-001, 1., 6.72549009e-001,
          2.79411763e-001, 1.86274517e-002, 4.07843143e-001,
          2.98039228e-001, 3.51960778e-001, 1.72549024e-001,
          9.99019623e-001, 1.62745103e-001, 8.46078455e-001,
          9.97058809e-001, 7.39215672e-001, 8.52941155e-001,
          7.83333361e-001, 9.31372523e-001, 7.55882382e-001,
          4.75490183e-001, 7.98039198e-001, 4.84313726e-001,
          5.74509799e-001, 3.80392164e-001, 9.82352912e-001,
          6.82352960e-001, 5.01960814e-001, 5.49019612e-002,
          3.97058815e-001, 2.41176471e-001, 3.23529430e-002,
          9.46078420e-001, 4.68627453e-001, 9.61764693e-001,
          1.63725495e-001, 2.73529410e-001, 9.08823550e-001,
          3.20588231e-001, 5.16666651e-001, 6.19607866e-001,
          1.76470593e-001, 7.17647076e-001, 3.50980401e-001,
          4.74509805e-001, 8.05882335e-001, 4.89215672e-001,
          7.15686262e-001, 4.48039204e-001, 7.35294104e-001,
          2.09803924e-001, 4.79411751e-001, 6.08823538e-001,
          6.99019611e-001, 3.92156886e-003, 5.09803928e-002,
          9.93137240e-001, 9.84313726e-001, 1.87254906e-001,
          8.05882335e-001, 5.84313750e-001, 6.96078420e-001,
          9.15686250e-001, 6.00980401e-001, 6.15686297e-001,
          3.41176480e-001, 4.90196079e-001, 1.26470596e-001,
          8.78431380e-001, 7.79411793e-001, 5.48039198e-001,
          7.45098069e-002, 5.11764705e-001, 7.34313726e-001,
          7.28431344e-001, 5.86274505e-001, 9.70588252e-002,
          5.18627465e-001, 1.93137258e-001, 6.57843113e-001,
          1.96078435e-001, 8.23529422e-001, 5.44117630e-001,
          4.89215672e-001, 6.44117653e-001, 8.49019587e-001,
          4.07843143e-001, 7.49019623e-001, 5.93137264e-001,
          4.04901952e-001, 6.91176474e-001, 9.89215672e-001,
          5.70588231e-001, 5.89215696e-001, 4.09803927e-001,
          5.99019587e-001, 4.32352930e-001, 2.41176471e-001,
          2.99019605e-001, 2.08823532e-001, 6.88235283e-001,
          3.52941193e-002, 4.08823520e-001, 9.19607818e-001,
          2.41176471e-001, 6.54901981e-001, 5.05882382e-001,
          4.42156851e-001, 6.32352948e-001, 7.47058809e-001,
          4.12745088e-001, 3.47058833e-001, 6.24509811e-001,
          5.18627465e-001, 3.75490189e-001, 9.99019623e-001,
          7.01960802e-001, 4.31372553e-001, 5.46078444e-001,
          4.68627453e-001, 4.74509805e-001, 8.96078408e-001,
          6.00000024e-001, 4.29411769e-001, 2.84313727e-002,
          1.20588236e-001, 9.97058809e-001, 3.70588243e-001,
          4.03921574e-001, 3.67647052e-001, 5.52941203e-001,
          2.60784328e-001, 8.58823538e-001, 9.94117618e-001,
          3.19607854e-001, 1.58823535e-001, 3.32352936e-001,
          6.03921592e-001, 1.37254903e-002, 3.92156886e-003,
          8.65686297e-001, 6.68627441e-001, 7.58823514e-001,
          3.08823526e-001, 2.15686277e-001, 7.80392170e-001,
          8.40196073e-001, 7.10784316e-001, 7.08823502e-001,
          3.59803915e-001, 5.71568608e-001, 1.17647061e-002, 1.,
          8.33333313e-001, 3.49019617e-001, 3.38235289e-001,
          4.11764719e-002, 1.26470596e-001, 4.32352930e-001,
          5.13725519e-001, 7.38235295e-001, 4.12745088e-001,
          3.45098048e-001, 7.78431356e-001, 5.54901958e-001,
          2.25490198e-001, 2.47058824e-001 ]
      - [ 2.56862760e-001, 9.72549021e-001, 9.94117618e-001,
          5.39215691e-002, 8.16666663e-001, 4.34313715e-001,
          2.65686274e-001, 7.94117630e-001, 9.68627453e-001,
          3.32352936e-001, 6.17647059e-002, 7.90196061e-001,
          2.51960784e-001, 9.47058797e-001, 6.91176474e-001,
          2.42156863e-001, 7.42156863e-001, 7.65686274e-001,
          6.17647059e-002, 3.48039210e-001, 3.61764699e-001,
          3.77450973e-001, 2.48039216e-001, 9.38235283e-001,
          2.00980395e-001, 3.75490189e-001, 9.98039186e-001,
          2.98039228e-001, 1.81372553e-001, 3.57843131e-001,
          6.99999988e-001, 1., 3.15686285e-001, 7.55882382e-001,
          3.40196073e-001, 6.81372523e-001, 1.27450988e-001,
          5.59803903e-001, 1.87254906e-001, 4.41176474e-001,
          2.63725489e-001, 5.77450991e-001, 8.27450991e-001,
          5.51960766e-001, 2.34313726e-001, 9.23529387e-001,
          9.72549021e-001, 5.35294116e-001, 6.25490189e-001,
          8.51960778e-001, 9.81372535e-001, 6.30392134e-001,
          3.65686268e-001, 9.99019623e-001, 8.08823526e-001,
          8.43137264e-001, 9.57843125e-001, 2.82352954e-001,
          2.94117648e-002, 3.92156886e-003, 1.33333340e-001,
          4.86274511e-001, 3.11764717e-001, 7.71568656e-001,
          4.70588237e-001, 6.00000024e-001, 8.94117653e-001,
          4.74509805e-001, 3.34313720e-001, 9.67647076e-001,
          2.68627465e-001, 5.38235307e-001, 5.59803903e-001,
          7.07843125e-001, 2.68627465e-001, 9.34313715e-001,
          5.70588231e-001, 9.85294104e-001, 3.34313720e-001,
          3.52941185e-001, 4.93137240e-001, 5.67647040e-001,
          5.90196073e-001, 4.77450967e-001, 3.83333325e-001,
          2.21568629e-001, 9.66666639e-001, 2.93137252e-001,
          9.01960805e-002, 4.56862748e-001, 8.47058833e-001,
          4.64705884e-001, 9.90196049e-001, 7.01960802e-001,
          9.89215672e-001, 2.86274523e-001, 3.37254912e-001,
          5.92156887e-001, 8.81372571e-001, 2.75490195e-001,
          9.10784304e-001, 6.17647052e-001, 1.32352948e-001,
          8.49019587e-001, 5.35294116e-001, 5.35294116e-001,
          9.42156851e-001, 2.77450979e-001, 8.90196085e-001,
          7.08823502e-001, 2.07843140e-001, 5.65686285e-001,
          8.24509799e-001, 5.01960814e-001, 7.50000000e-001,
          7.84313772e-003, 6.40196085e-001, 4.49999988e-001,
          3.68627459e-001, 4.00000006e-001, 6.11764729e-001,
          8.10784340e-001, 2.87254900e-001, 3.60784322e-001,
          3.23529422e-001, 6.50980413e-001, 4.73529398e-001,
          4.88235295e-001, 9.42156851e-001, 8.13725516e-002,
          7.30392158e-001, 3.49019617e-001, 2.78431386e-001,
          5.72549045e-001, 9.30392146e-001, 2.76470602e-001,
          4.95098025e-001, 1.18627451e-001, 2.22549021e-001,
          6.27451003e-001, 5.65686285e-001, 7.66666651e-001,
          8.43137264e-001, 2.96078444e-001, 5.96078455e-001,
          8.03921595e-002, 4.07843143e-001, 7.89215684e-001,
          6.93137228e-001, 1.22549020e-001, 3.58823538e-001,
          5.03921568e-001, 4.03921574e-001, 2.76470602e-001,
          3.63725483e-001, 3.31372559e-001, 9.98039186e-001,
          4.06862736e-001, 9.36274529e-001, 3.06862742e-001,
          9.97058809e-001, 5.36274493e-001, 6.75490201e-001,
          5.68627477e-001, 8.80392134e-001, 4.60784316e-001,
          9.21568632e-001, 2.51960784e-001, 4.60784316e-001,
          2.96078444e-001, 4.60784316e-001, 8.19607854e-001,
          1.23529412e-001, 3.55882347e-001, 7.31372535e-001,
          4.40196067e-001, 9.99019623e-001, 8.51960778e-001,
          3.24509799e-001, 4.96078432e-001, 7.18627453e-001,
          8.18627477e-001, 6.67647064e-001, 4.46078420e-001,
          4.95098025e-001, 2.40196079e-001, 3.43137264e-001,
          3.92156886e-003, 7.60784328e-001, 9.97058809e-001,
          6.64705873e-001, 4.83333319e-001, 3.17647070e-001,
          2.13725492e-001, 4.96078432e-001, 9.75490212e-001,
          5.98039210e-001, 7.07843125e-001, 2.44117647e-001,
          5.39215684e-001, 9.99019623e-001, 7.84313772e-003,
          5.28431356e-001, 3.23529430e-002, 1.83333337e-001,
          1.11764707e-001, 3.60784322e-001, 9.97058809e-001,
          5.61764717e-001, 4.24509794e-001, 9.87254918e-001,
          8.69607866e-001, 7.88235307e-001, 1.95098042e-001,
          7.12745070e-001, 6.39215708e-001, 7.72549033e-001,
          3.92156886e-003, 8.31372559e-001, 4.87254888e-001,
          5.78431375e-002, 1.28431380e-001, 4.95098025e-001,
          1.75490201e-001, 4.75490183e-001, 9.07843113e-001,
          9.50980365e-001, 8.39215696e-001, 9.93137240e-001,
          3.36274505e-001, 8.21568608e-001, 4.66666669e-001,
          6.36274517e-001, 4.40196067e-001, 7.24509776e-001,
          3.56862754e-001, 9.50980365e-001, 2.35294119e-001,
          2.93137252e-001, 5.14705896e-001, 4.18627441e-001,
          8.52941200e-002, 4.99019593e-001, 9.05882359e-001,
          6.63725495e-001, 8.92156839e-001, 6.22548997e-001,
          9.69607830e-001, 5.35294116e-001, 4.12745088e-001,
          5.27450979e-001, 6.61764681e-001, 6.59803927e-001,
          4.40196067e-001, 9.80392192e-003, 6.03921592e-001 ]
      - [ 5.89215696e-001, 4.80392165e-002, 7.60784328e-001,
          9.49999988e-001, 1.47058824e-002, 7.86274493e-001,
          2.26470590e-001, 3.38235289e-001, 4.82352942e-001,
          1.71568632e-001, 1.90196082e-001, 8.40196073e-001,
          1.91176474e-001, 4.50980403e-002, 1.47058824e-002,
          6.98039234e-001, 1.25490203e-001, 8.11764717e-001,
          2.06862748e-001, 5.38235307e-001, 1.56862751e-001,
          1.80392161e-001, 2.86274523e-001, 3.17647070e-001,
          2.56862760e-001, 5.57843149e-001, 7.32352912e-001,
          8.48039210e-001, 4.94117647e-001, 6.49999976e-001,
          3.48039210e-001, 9.27450955e-001, 6.85294092e-001,
          8.00980389e-001, 2.31372550e-001, 3.92156869e-001,
          7.05882370e-001, 2.59803921e-001, 9.19607818e-001,
          3.92156886e-003, 2.35294119e-001, 6.14705861e-001,
          2.31372550e-001, 5.10784328e-001, 5.12745082e-001,
          6.54901981e-001, 2.07843140e-001, 6.19607866e-001,
          4.05882359e-001, 7.26470590e-001, 2.89215684e-001,
          6.81372523e-001, 4.31372553e-001, 8.10784340e-001,
          3.09803933e-001, 2.53921568e-001, 4.11764711e-001,
          3.17647070e-001, 4.82352942e-001, 9.84313726e-001,
          5.97058833e-001, 9.94117618e-001, 7.38235295e-001,
          3.41176480e-001, 9.60784331e-002, 2.67647058e-001,
          6.67647064e-001, 9.06862736e-001, 7.25490212e-001,
          2.43137255e-001, 2.08823532e-001, 4.19607848e-001,
          8.99019599e-001, 7.91176498e-001, 2.99019605e-001,
          2.84313727e-002, 9.49999988e-001, 4.00000006e-001,
          2.46078432e-001, 5.40196061e-001, 3.87254894e-001,
          5.82352936e-001, 9.94117618e-001, 6.60784304e-001,
          5.03921568e-001, 6.51960790e-001, 9.07843113e-001,
          8.48039210e-001, 3.84313732e-001, 4.92156863e-001,
          5.53921580e-001, 8.53921592e-001, 2.71568626e-001,
          9.83333349e-001, 7.12745070e-001, 8.35294127e-001,
          8.84313703e-001, 4.06862736e-001, 5.75490177e-001,
          4.47058827e-001, 2.54901975e-001, 8.19607854e-001,
          5.48039198e-001, 3.92156886e-003, 1.21568628e-001,
          1.54901966e-001, 4.33333337e-001, 5.50980389e-001,
          1.61764711e-001, 9.85294104e-001, 2.86274523e-001,
          4.07843143e-001, 2.74509806e-002, 2.28431374e-001,
          5.21568656e-001, 9.99019623e-001, 9.46078420e-001,
          4.95098025e-001, 4.23529416e-001, 3.42156857e-001,
          7.66666651e-001, 2.87254900e-001, 6.70588255e-001,
          2.10784316e-001, 3.48039210e-001, 4.51960772e-001, 1.,
          6.13725483e-001, 6.22548997e-001, 4.03921574e-001,
          1.92156866e-001, 7.01960802e-001, 8.99019599e-001,
          2.97058821e-001, 5.63725471e-001, 7.35294104e-001,
          2.54901964e-002, 5.06862760e-001, 5.80392182e-001,
          6.38235271e-001, 5.86274505e-001, 9.97058809e-001,
          2.67647058e-001, 1.96078435e-001, 7.41176486e-001,
          6.41176462e-001, 6.17647052e-001, 6.33333325e-001,
          7.20588207e-001, 6.47058845e-001, 2.08823532e-001,
          6.86274515e-003, 8.23529422e-001, 9.90196049e-001,
          7.88235307e-001, 5.22549033e-001, 4.55882341e-001,
          5.06862760e-001, 7.87254930e-001, 8.94117653e-001,
          2.24509805e-001, 1., 5.06862760e-001, 5.50980389e-001,
          4.74509805e-001, 7.65686274e-001, 3.53921562e-001,
          4.74509805e-001, 5.45098066e-001, 4.76470590e-001,
          2.41176471e-001, 6.36274517e-001, 3.19607854e-001,
          3.25490206e-001, 9.61764693e-001, 4.29411769e-001,
          8.49019587e-001, 7.08823502e-001, 5.50000012e-001,
          5.63725471e-001, 7.20588207e-001, 6.11764729e-001,
          6.36274517e-001, 9.77450967e-001, 7.54901946e-001,
          2.40196079e-001, 5.04901946e-001, 3.02941173e-001,
          9.99019623e-001, 8.74509811e-001, 3.43137264e-001,
          1.47058824e-002, 9.97058809e-001, 8.16666663e-001,
          7.85294116e-001, 3.32352936e-001, 5.54901958e-001,
          6.56862736e-001, 4.50980403e-002, 6.85294092e-001,
          6.26470566e-001, 1.34313732e-001, 4.98039216e-001,
          4.89215672e-001, 3.04901958e-001, 2.13725492e-001,
          7.98039198e-001, 3.93137246e-001, 7.96078444e-001,
          5.27450979e-001, 4.12745088e-001, 2.58823544e-001,
          6.34313703e-001, 3.28431368e-001, 8.82352963e-002,
          4.80392165e-002, 5.32352924e-001, 9.97058809e-001,
          2.85294116e-001, 9.97058809e-001, 6.97058797e-001,
          5.18627465e-001, 1.48039222e-001, 7.39215672e-001,
          5.02941191e-001, 5.40196061e-001, 3.51960778e-001,
          8.95098031e-001, 6.58823550e-001, 3.41176480e-001,
          9.59803939e-001, 3.17647070e-001, 9.17647064e-001,
          8.46078455e-001, 1.90196082e-001, 4.97058809e-001,
          5.77450991e-001, 4.72549021e-001, 6.00000024e-001,
          8.00000012e-001, 3.18627447e-001, 5.85294127e-001,
          9.99019623e-001, 3.61764699e-001, 3.20588231e-001,
          7.04901934e-001, 8.03921595e-002, 8.23529422e-001,
          1.37254909e-001, 3.51960778e-001, 1.62745103e-001,
          2.33333334e-001, 3.04901958e-001, 5.30392170e-001,
          9.19607818e-001, 7.61764705e-001 ]
      - [ 7.01960802e-001, 8.84313703e-001, 5.35294116e-001,
          6.00980401e-001, 9.25490201e-001, 9.74509776e-001,
          5.89215696e-001, 2.85294116e-001, 9.63725507e-001,
          4.65686262e-001, 4.34313715e-001, 1.75490201e-001,
          9.73529398e-001, 3.00000012e-001, 9.95098054e-001,
          2.00980395e-001, 0., 0., 0., 0., 0., 0., 0., 0., 0., 0., 0.,
          0., 0., 0., 0., 0., 0., 0., 0., 0., 0., 0., 0., 0., 0., 0., 0.,
          0., 0., 0., 0., 0., 0., 0., 0., 0., 0., 0., 0., 0., 0., 0., 0.,
          0., 0., 0., 0., 0., 0., 0., 0., 0., 0., 0., 0., 0., 0., 0., 0.,
          0., 0., 0., 0., 0., 0., 0., 0., 0., 0., 0., 0., 0., 0., 0., 0.,
          0., 0., 0., 0., 0., 0., 0., 0., 0., 0., 0., 0., 0., 0., 0., 0.,
          0., 0., 0., 0., 0., 0., 0., 0., 0., 0., 0., 0., 0., 0., 0., 0.,
          0., 0., 0., 0., 0., 0., 0., 0., 0., 0., 0., 0., 0., 0., 0., 0.,
          0., 0., 0., 0., 0., 0., 0., 0., 0., 0., 0., 0., 0., 0., 0., 0.,
          0., 0., 0., 0., 0., 0., 0., 0., 0., 0., 0., 0., 0., 0., 0., 0.,
          0., 0., 0., 0., 0., 0., 0., 0., 0., 0., 0., 0., 0., 0., 0., 0.,
          0., 0., 0., 0., 0., 0., 0., 0., 0., 0., 0., 0., 0., 0., 0., 0.,
          0., 0., 0., 0., 0., 0., 0., 0., 0., 0., 0., 0., 0., 0., 0., 0.,
